tree
version=v3
num_class=3
num_tree_per_iteration=3
label_index=0
max_feature_idx=3
objective=multiclass num_class:3
feature_names=Column_0 Column_1 Column_2 Column_3
feature_infos=[4.4000000000000004:7.9000000000000004] [2.2000000000000002:4.4000000000000004] [1:6.9000000000000004] [0.10000000000000001:2.5]
tree_sizes=446 622 540 651 746 643 647 734 646 647 752 643 652 735 754 739 754 752 653 738 754 652 748 755 743 736 756 654 650 758 757 648 756 654 634 754 654 737 752 758 648 753 744 634 859 656 754 858 653 633 857 759 650 857 744 738 859 655 651 858 742 637 858 653 751 860 755 748 865 744 735 867 657 647 748 747 733 863 765 647 756 748 735 759 870 651 863 769 750 974 746 652 857 874 640 756 765 761 972 860 865 861 766 866 974 863 651 652 879 870 753 863 758 864 878 755 865 868 757 758 880 651 752 867 859 752 880 650 656 868 652 760 883 1077 1064 868 648 985 884 652 983 868 864 1078 883 859 1085 860 654 1084 882 654 1093 865 861 1088 869 757 659 885 861 659 867 760 761 779 657 657 865 653 1311 870 871 1312 885 1074 555 873 656 763 874 659 659 979 867 1426 981 758 656 980 869 1428 983 760 657 983 558 658 982 872 659 875 558 658 980 559 659 980 875 657 783 870 1097 981 555 658 877 763 661 785 877 1093 987 767 657 1096 874 1102 987 762 660 783 670 666 992 881 666 988 768 665 883 763 660 882 982 1101 789 982 669 972 985 1100 972 662 666 678 767 661 676 983 1101 978 985 1100 979 661 665 980 663 560 684 984 562 981 555 1105 978 986 665 979 667 557 685 559 562 982 990 663 979 984 1101 978 660 661 982 986 1099 982 665 562

Tree=0
num_leaves=3
num_cat=0
split_feature=2 1
split_gain=84.4138 0.349138
threshold=3.4000000000000004 3.3500000000000001
decision_type=2 2
left_child=1 -1
right_child=-2 -3
leaf_value=-0.87566859594272661 -1.1375220418976189 -0.84657376861440525
leaf_weight=6.8740743398666408 29.214815944433212 10.311111509799955
leaf_count=20 85 30
internal_value=-1.03407 -0.858212
internal_weight=0 17.1852
internal_count=135 50
is_linear=0
shrinkage=1


Tree=1
num_leaves=5
num_cat=0
split_feature=2 3 2 2
split_gain=20.2893 47.2988 0.504411 0.261676
threshold=1.8 1.6500000000000001 4.4500000000000011 5.5500000000000007
decision_type=2 2 2 2
left_child=-1 2 -2 -3
right_child=1 3 -4 -5
leaf_value=-1.287447390586167 -0.99741107158984987 -1.2600337498492751 -1.0352418958067608 -1.287447390586167
leaf_weight=14.591275632381437 7.9300411045551318 7.2956378161907178 6.344032883644104 6.6612345278263092
leaf_count=46 25 23 20 21
internal_value=-1.1917 -1.14222 -1.01422 -1.27312
internal_weight=0 28.2309 14.2741 13.9569
internal_count=135 89 45 44
is_linear=0
shrinkage=1


Tree=2
num_leaves=4
num_cat=0
split_feature=3 2 2
split_gain=72.9851 1.8524 0.246336
threshold=1.6500000000000001 4.4500000000000011 5.5500000000000007
decision_type=2 2 2
left_child=1 -1 -2
right_child=2 -3 -4
leaf_value=-1.1777569742748693 -0.90678780167150042 -1.1184018221807979 -0.880981213804513
leaf_weight=23.923786729574207 7.7499590814113599 6.7390948534011832 7.0760495960712433
leaf_count=71 23 20 21
internal_value=-1.07663 -1.16471 -0.894471
internal_weight=0 30.6629 14.826
internal_count=135 91 44
is_linear=0
shrinkage=1


Tree=3
num_leaves=5
num_cat=0
split_feature=3 1 0 2
split_gain=66.9904 0.338115 0.00104447 0.000887694
threshold=0.45000000000000007 3.0500000000000003 5.0500000000000007 4.4500000000000011
decision_type=2 2 2 2
left_child=2 3 -1 -2
right_child=1 -3 -4 -5
leaf_value=0.15972979055399067 -0.099170205471893369 -0.074031276364018003 0.15813935404661503 -0.097806969054687887
leaf_weight=9.4824586510658282 7.2510483860969606 7.890731453895568 7.3141441047191611 13.997387975454329
leaf_count=26 22 24 20 43
internal_value=0 -0.0917079 0.159037 -0.0982722
internal_weight=0 29.1392 16.7966 21.2484
internal_count=135 89 46 65
is_linear=0
shrinkage=0.1


Tree=4
num_leaves=6
num_cat=0
split_feature=3 3 2 2 2
split_gain=17.3615 36.2071 0.412094 0.251136 0.000176541
threshold=0.45000000000000007 1.6500000000000001 4.4500000000000011 5.5500000000000007 1.4500000000000002
decision_type=2 2 2 2 2
left_child=4 2 -2 -3 -1
right_child=1 3 -4 -5 -6
leaf_value=-0.09183898193644098 0.16276278688835932 -0.064099490568065007 0.12991160204007454 -0.0916987395976335 -0.092554615983787475
leaf_weight=6.8640545308589918 8.608512222766878 6.9759622216224653 6.8625813722610465 6.2515739500522614 6.9249167442321777
leaf_count=23 25 23 20 21 23
internal_value=0 0.0443316 0.148191 -0.0771434 -0.0921984
internal_weight=0 28.6986 15.4711 13.2275 13.789
internal_count=135 89 45 44 46
is_linear=0
shrinkage=0.1


Tree=5
num_leaves=5
num_cat=0
split_feature=2 2 0 2
split_gain=57.4927 2.19478 0.110046 0.001679
threshold=4.7500000000000009 5.1500000000000012 4.9500000000000011 4.0500000000000007
decision_type=2 2 2 2
left_child=2 -2 -1 -4
right_child=1 -3 3 -5
leaf_value=-0.08177526276702024 0.095330452522182058 0.16608511402492995 -0.095859251876221907 -0.09774803056643816
leaf_weight=6.7090606391429928 7.3800394535064724 10.799546271562575 12.702741950750353 7.4764322340488425
leaf_count=21 21 30 40 23
internal_value=0 0.137362 -0.0928702 -0.096559
internal_weight=0 18.1796 26.8882 20.1792
internal_count=135 51 84 63
is_linear=0
shrinkage=0.1


Tree=6
num_leaves=5
num_cat=0
split_feature=2 1 2 2
split_gain=54.8463 0.177985 0.000629053 0.00013105
threshold=3.4000000000000004 3.3500000000000001 4.7500000000000009 5.1500000000000012
decision_type=2 2 2 2
left_child=1 -1 -2 -4
right_child=2 -3 3 -5
leaf_value=0.1189926278920426 -0.094200571972240091 0.1389745345740136 -0.093545518018723128 -0.09295653628435839
leaf_weight=7.3970447778701809 10.546772211790087 11.217974096536635 6.4465006589889517 9.1252731382846815
leaf_count=20 34 30 21 30
internal_value=0 0.131034 -0.0936043 -0.0932004
internal_weight=0 18.615 26.1185 15.5718
internal_count=135 50 85 51
is_linear=0
shrinkage=0.1


Tree=7
num_leaves=6
num_cat=0
split_feature=2 3 2 2 2
split_gain=14.662 28.3129 0.259733 0.233217 0.000338705
threshold=1.8 1.6500000000000001 4.4500000000000011 5.5500000000000007 1.4500000000000002
decision_type=2 2 2 2 2
left_child=4 2 -2 -3 -1
right_child=1 3 -4 -5 -6
leaf_value=-0.088244389449841476 0.13802081564212595 -0.060703702009390216 0.11256053866735274 -0.088097094293229428 -0.089271534722784082
leaf_weight=6.3730000853538495 9.0783277451992088 6.6977345645427686 7.1725231707096091 5.7985848784446716 6.4693014919757843
leaf_count=23 25 23 20 21 23
internal_value=0 0.0397578 0.126784 -0.0734149 -0.0887618
internal_weight=0 28.7472 16.2509 12.4963 12.8423
internal_count=135 89 45 44 46
is_linear=0
shrinkage=0.1


Tree=8
num_leaves=5
num_cat=0
split_feature=2 2 0 2
split_gain=46.7831 1.7021 0.110588 0.00192851
threshold=4.7500000000000009 5.1500000000000012 4.9500000000000011 4.0500000000000007
decision_type=2 2 2 2
left_child=2 -2 -1 -4
right_child=1 -3 3 -5
leaf_value=-0.077171716576238059 0.083315102551791115 0.14475017059727893 -0.091658784749242925 -0.093743498991406451
leaf_weight=6.3292571306228664 7.5732742846012142 11.148491173982618 11.893672376871111 7.0781854689121237
leaf_count=21 21 30 40 23
internal_value=0 0.119899 -0.088618 -0.0924366
internal_weight=0 18.7218 25.3011 18.9719
internal_count=135 51 84 63
is_linear=0
shrinkage=0.1


Tree=9
num_leaves=5
num_cat=0
split_feature=2 1 2 2
split_gain=45.3129 0.158566 0.00137192 0.000203814
threshold=3.4000000000000004 3.3500000000000001 5.1500000000000012 4.7500000000000009
decision_type=2 2 2 2
left_child=1 -1 3 -2
right_child=2 -3 -4 -5
leaf_value=0.10601271793797727 -0.090733100266498695 0.1248750691925693 -0.088877525143511493 -0.089996227710237159
leaf_weight=7.4151998460292843 9.9279000163078326 11.170556515455244 8.42994576692581 6.0356127619743338
leaf_count=20 34 30 30 21
internal_value=0 0.11735 -0.0899095 -0.0904545
internal_weight=0 18.5858 24.3935 15.9635
internal_count=135 50 85 55
is_linear=0
shrinkage=0.1


Tree=10
num_leaves=6
num_cat=0
split_feature=3 2 2 0 2
split_gain=12.5517 23.4134 0.219684 0.0160903 0.000433057
threshold=0.45000000000000007 4.9500000000000011 4.4500000000000011 6.5500000000000007 1.4500000000000002
decision_type=2 2 2 2 2
left_child=4 2 -2 -3 -1
right_child=1 3 -4 -5 -6
leaf_value=-0.085325015282136166 0.12221024407306985 -0.076624491800222669 0.099213627108300478 -0.069157792887303463 -0.086531301798021654
leaf_weight=5.8937653005123121 9.229863524436956 6.0346943736076337 7.5537165999412528 5.5314925611019135 6.0117190480232239
leaf_count=23 25 21 22 21 23
internal_value=0 0.0364188 0.11186 -0.0730536 -0.0859341
internal_weight=0 28.3498 16.7836 11.5662 11.9055
internal_count=135 89 47 42 46
is_linear=0
shrinkage=0.1


Tree=11
num_leaves=5
num_cat=0
split_feature=2 3 2 1
split_gain=38.5272 0.68931 0.533152 0.000787517
threshold=4.8500000000000005 1.3500000000000003 5.3500000000000005 3.3500000000000001
decision_type=2 2 2 2
left_child=1 3 -2 -1
right_child=2 -3 -4 -5
leaf_value=-0.0889740639220961 0.093988589460442418 -0.049393370090804169 0.12945393413156836 -0.08767830669480299
leaf_weight=10.97549039125443 7.329859763383868 5.9246758520603171 10.051491737365721 8.1908139586448652
leaf_count=39 20 19 27 30
internal_value=0 -0.079205 0.114498 -0.0884203
internal_weight=0 25.091 17.3814 19.1663
internal_count=135 88 47 69
is_linear=0
shrinkage=0.1


Tree=12
num_leaves=5
num_cat=0
split_feature=2 1 2 2
split_gain=37.8054 0.143639 0.00158463 0.000260979
threshold=3.4000000000000004 3.3500000000000001 5.1500000000000012 4.4500000000000011
decision_type=2 2 2 2
left_child=1 -1 3 -2
right_child=2 -3 -4 -5
leaf_value=0.095962990925579597 -0.086854276731264723 0.11409342225060254 -0.085629228471046731 -0.087717918592534028
leaf_weight=7.3005936145782497 5.6197206974029568 10.884880661964415 7.7554846405982962 9.2717017680406553
leaf_count=20 21 30 30 34
internal_value=0 0.106815 -0.0867883 -0.087392
internal_weight=0 18.1855 22.6469 14.8914
internal_count=135 50 85 55
is_linear=0
shrinkage=0.1


Tree=13
num_leaves=6
num_cat=0
split_feature=2 3 2 2 2
split_gain=10.8601 19.4794 0.19371 0.135333 0.000620142
threshold=1.8 1.6500000000000001 5.5500000000000007 4.4500000000000011 1.4500000000000002
decision_type=2 2 2 2 2
left_child=4 3 -3 -2 -1
right_child=1 2 -4 -5 -6
leaf_value=-0.082870719243036933 0.11092529146250805 -0.056294450554256192 -0.082777160227440735 0.09271952187762722 -0.084373038338890927
leaf_weight=5.4250777214765531 9.1705336272716576 6.2688290327787382 4.9374388009309769 7.3599926829338065 5.5675127655267715
leaf_count=23 25 23 21 20 23
internal_value=0 0.0338198 -0.0679626 0.102819 -0.0836316
internal_weight=0 27.7368 11.2063 16.5305 10.9926
internal_count=135 89 44 45 46
is_linear=0
shrinkage=0.1


Tree=14
num_leaves=6
num_cat=0
split_feature=3 2 0 1 0
split_gain=32.2465 1.19234 0.0680641 0.00072517 6.1542e-05
threshold=1.6500000000000001 4.4500000000000011 6.5500000000000007 3.3500000000000001 5.1500000000000012
decision_type=2 2 2 2 2
left_child=1 3 -2 4 -1
right_child=2 -3 -4 -5 -6
leaf_value=-0.085648621235361322 0.11538434143993477 -0.034776415392731075 0.10236156754126524 -0.084614298306268987 -0.086129212349683737
leaf_weight=5.1606072187423759 8.8839231729507464 6.2633932232856742 7.3204790353775016 7.5144087523221961 5.5088631510734558
leaf_count=20 24 20 20 30 21
internal_value=0 -0.0724055 0.109501 -0.0853668 -0.0858968
internal_weight=0 24.4473 16.2044 18.1839 10.6695
internal_count=135 91 44 71 41
is_linear=0
shrinkage=0.1


Tree=15
num_leaves=6
num_cat=0
split_feature=2 1 0 1 2
split_gain=31.8243 0.298179 0.00505807 0.00221204 0.000491835
threshold=1.8 3.0500000000000003 5.8500000000000005 3.4500000000000006 5.0500000000000007
decision_type=2 2 2 2 2
left_child=3 2 -2 -1 -4
right_child=1 -3 4 -5 -6
leaf_value=0.10753331085096121 -0.087418500061930374 -0.059266445357379155 -0.084432451262577909 0.10516462391361714 -0.083043875070521717
leaf_weight=9.1474285721778887 5.9717271625995698 6.167820841073989 5.2249371409416181 6.9289195835590354 4.984038308262825
leaf_count=26 23 24 21 20 21
internal_value=0 -0.0779753 -0.0851068 0.106512 -0.0837545
internal_weight=0 22.3485 16.1807 16.0763 10.209
internal_count=135 89 65 46 42
is_linear=0
shrinkage=0.1


Tree=16
num_leaves=6
num_cat=0
split_feature=3 2 2 0 2
split_gain=9.37007 16.4069 0.142409 0.0254954 0.000541138
threshold=0.45000000000000007 4.9500000000000011 4.4500000000000011 6.5500000000000007 1.4500000000000002
decision_type=2 2 2 2 2
left_child=4 2 -2 -3 -1
right_child=1 3 -4 -5 -6
leaf_value=-0.080762162136378948 0.10155513984242732 -0.072702283251684582 0.082958328919977384 -0.062696780826348816 -0.082227752417208033
leaf_weight=4.9671603739261609 8.9765300154686027 5.4381787627935392 7.6075440049171439 4.7898677736520767 5.1121964752674103
leaf_count=23 25 21 22 21 23
internal_value=0 0.0315919 0.0930243 -0.0680166 -0.0815055
internal_weight=0 26.8121 16.5841 10.228 10.0794
internal_count=135 89 47 42 46
is_linear=0
shrinkage=0.1


Tree=17
num_leaves=6
num_cat=0
split_feature=2 2 0 2 1
split_gain=27.2346 1.17578 0.122929 0.00526429 0.000410443
threshold=4.7500000000000009 5.1500000000000012 4.9500000000000011 4.2500000000000009 3.3500000000000001
decision_type=2 2 2 2 2
left_child=2 -2 -1 4 -4
right_child=1 -3 3 -5 -6
leaf_value=-0.065932059254102268 0.059038505413454595 0.11058302981059705 -0.083298193504618367 -0.08662597424640453 -0.082042137295150364
leaf_weight=5.1009795069694546 7.605177670717242 10.584784120321272 4.7820988148450834 4.7557229548692694 5.7054600119590759
leaf_count=21 21 30 20 18 25
internal_value=0 0.0890324 -0.0793696 -0.0838663 -0.0826149
internal_weight=0 18.19 20.3443 15.2433 10.4876
internal_count=135 51 84 63 45
is_linear=0
shrinkage=0.1


Tree=18
num_leaves=5
num_cat=0
split_feature=2 1 2 2
split_gain=27.3144 0.136345 0.00129642 0.000421588
threshold=3.4000000000000004 3.3500000000000001 5.1500000000000012 4.4500000000000011
decision_type=2 2 2 2
left_child=1 -1 3 -2
right_child=2 -3 -4 -5
leaf_value=0.081896732923582335 -0.081832633247013148 0.10032240353814181 -0.080844849178839787 -0.083020684419562271
leaf_weight=6.7649233341217068 4.7556016743183163 9.8831051886081678 6.5056337118148795 8.0309189260005933
leaf_count=20 21 30 30 34
internal_value=0 0.0928351 -0.0819941 -0.0825788
internal_weight=0 16.648 19.2922 12.7865
internal_count=135 50 85 55
is_linear=0
shrinkage=0.1


Tree=19
num_leaves=6
num_cat=0
split_feature=2 3 3 2 2
split_gain=8.07751 13.4805 0.359102 0.0949649 0.000842833
threshold=1.8 1.6500000000000001 1.9500000000000002 4.4500000000000011 1.4500000000000002
decision_type=2 2 2 2 2
left_child=4 3 -3 -2 -1
right_child=1 2 -4 -5 -6
leaf_value=-0.078829113736627765 0.093249102276422816 -0.042240009003540212 -0.080504891372423837 0.07776272542778824 -0.080745655067948841
leaf_weight=4.498605549335478 8.6739178895950335 4.6115855127572996 5.2384895831346512 7.2856787145137778 4.6834807693958282
leaf_count=23 25 19 25 20 23
internal_value=0 0.0294026 -0.0625901 0.0861795 -0.0798067
internal_weight=0 25.8097 9.85008 15.9596 9.18209
internal_count=135 89 44 45 46
is_linear=0
shrinkage=0.1


Tree=20
num_leaves=6
num_cat=0
split_feature=2 3 0 2 1
split_gain=22.904 1.11226 0.129683 0.00422356 0.000327022
threshold=4.7500000000000009 1.8500000000000003 4.9500000000000011 4.2500000000000009 3.3500000000000001
decision_type=2 2 2 2 2
left_child=2 -2 -1 4 -4
right_child=1 -3 3 -5 -6
leaf_value=-0.062493118372940318 0.052527970981005992 0.10336949723356999 -0.081090580338266549 -0.084193525953131995 -0.079916876333923026
leaf_weight=4.7391216307878521 7.4272837638855007 10.229403704404829 4.3777353912591916 4.4147277474403372 5.1861462295055389
leaf_count=21 21 30 20 18 25
internal_value=0 0.081983 -0.0767886 -0.0816351 -0.0804541
internal_weight=0 17.6567 18.7177 13.9786 9.56388
internal_count=135 51 84 63 45
is_linear=0
shrinkage=0.1


Tree=21
num_leaves=5
num_cat=0
split_feature=2 1 2 2
split_gain=23.3623 0.140779 0.00118041 0.000451629
threshold=3.4000000000000004 3.3500000000000001 5.1500000000000012 4.4500000000000011
decision_type=2 2 2 2
left_child=1 -1 3 -2
right_child=2 -3 -4 -5
leaf_value=0.076143324714206262 -0.079866796203744206 0.095379167119170841 -0.078944142013471344 -0.081150389032055181
leaf_weight=6.4591377377510062 4.3454149812459963 9.2578442096710187 5.9075224697589865 7.4246023297309875
leaf_count=20 21 30 30 34
internal_value=0 0.0874739 -0.0800976 -0.0806765
internal_weight=0 15.717 17.6775 11.77
internal_count=135 50 85 55
is_linear=0
shrinkage=0.1


Tree=22
num_leaves=6
num_cat=0
split_feature=3 2 2 0 2
split_gain=7.06414 11.6133 0.327438 0.125494 0.00114088
threshold=0.45000000000000007 4.9500000000000011 5.5500000000000007 5.8500000000000005 1.4500000000000002
decision_type=2 2 2 2 2
left_child=4 3 -3 -2 -1
right_child=1 2 -4 -5 -6
leaf_value=-0.07725633296295753 0.069795914396448569 -0.04386075441874096 -0.08213334173854564 0.087820200245560143 -0.079592856543149598
leaf_weight=4.076146721839903 6.9277442693710354 4.4706888347864133 4.4708854854106903 8.7313617467880231 4.28830286860466
leaf_count=23 21 19 23 26 23
internal_value=0 0.0279269 -0.0629975 0.0798461 -0.0784542
internal_weight=0 24.6007 8.94157 15.6591 8.36445
internal_count=135 89 42 47 46
is_linear=0
shrinkage=0.1


Tree=23
num_leaves=6
num_cat=0
split_feature=2 2 2 1 1
split_gain=19.494 0.575744 0.487164 0.000547444 4.60856e-05
threshold=4.8500000000000005 4.4500000000000011 5.3500000000000005 3.3500000000000001 2.9500000000000006
decision_type=2 2 2 2 2
left_child=1 3 -2 4 -1
right_child=2 -3 -4 -5 -6
leaf_value=-0.07920902705341816 0.06338447214668845 -0.038369623030702987 0.099039907644706687 -0.078165337913290972 -0.079680911072629979
leaf_weight=4.1814711987972277 6.9261489510536185 4.6763284653425208 8.5777236223220807 5.6428334563970557 4.0979316383600235
leaf_count=21 20 17 27 30 20
internal_value=0 -0.0687279 0.0831113 -0.0789249 -0.0794426
internal_weight=0 18.5986 15.5039 13.9222 8.2794
internal_count=135 88 47 71 41
is_linear=0
shrinkage=0.1


Tree=24
num_leaves=6
num_cat=0
split_feature=2 1 1 1 0
split_gain=20.0502 0.403302 0.00680654 0.00147579 0.00026611
threshold=1.8 3.1500000000000008 2.6500000000000008 3.4500000000000006 6.2500000000000009
decision_type=2 2 2 2 2
left_child=3 2 -2 -1 -4
right_child=1 -3 4 -5 -6
leaf_value=0.09189261425994949 -0.083226092180801237 -0.042817555831772033 -0.078859293609371592 0.089761183243030146 -0.077817271567430762
leaf_weight=7.6555753648281115 3.9605412930250194 3.7703959047794333 4.6947638243436796 5.6429682970046997 5.1274804621934891
leaf_count=26 19 18 24 20 28
internal_value=0 -0.0717985 -0.0797265 0.0909882 -0.0783153
internal_weight=0 17.5532 13.7828 13.2985 9.82224
internal_count=135 89 71 46 52
is_linear=0
shrinkage=0.1


Tree=25
num_leaves=6
num_cat=0
split_feature=2 3 2 2 2
split_gain=6.13474 9.89655 0.32757 0.0912596 0.000883064
threshold=1.8 1.6500000000000001 5.1500000000000012 4.4500000000000011 1.4500000000000002
decision_type=2 2 2 2 2
left_child=4 3 -3 -2 -1
right_child=1 2 -4 -5 -6
leaf_value=-0.075922745125957813 0.083474846479767148 -0.037464559136286706 -0.076463567253982234 0.067754458889185451 -0.0780829590822886
leaf_weight=3.6865372806787517 7.856468081474306 4.0042110681533796 4.6605501025915146 6.9678645730018616 3.8881802260875702
leaf_count=23 25 16 28 20 23
internal_value=0 0.0264609 -0.0584411 0.0760858 -0.0770316
internal_weight=0 23.4891 8.66476 14.8243 7.57472
internal_count=135 89 44 45 46
is_linear=0
shrinkage=0.1


Tree=26
num_leaves=6
num_cat=0
split_feature=3 2 0 3 1
split_gain=16.7968 1.30974 0.0946551 0.000961917 0.000375094
threshold=1.6500000000000001 4.5500000000000007 6.5500000000000007 1.1000000000000003 3.3500000000000001
decision_type=2 2 2 2 2
left_child=1 3 -2 4 -1
right_child=2 -3 -4 -5 -6
leaf_value=-0.07785252052562644 0.091313434556969636 -0.015365439555042881 0.074517379232180866 -0.078982694976403867 -0.076591479660026926
leaf_weight=4.4082587212324196 7.80276972055435 4.4558028876781455 5.8865899741649628 4.2880420237779608 5.0734022855758667
leaf_count=24 24 15 20 22 30
internal_value=0 -0.0624904 0.0840909 -0.0777398 -0.0771778
internal_weight=0 18.2255 13.6894 13.7697 9.48166
internal_count=135 91 44 76 54
is_linear=0
shrinkage=0.1


Tree=27
num_leaves=5
num_cat=0
split_feature=2 1 2 2
split_gain=17.385 0.148023 0.000742232 0.000364493
threshold=3.4000000000000004 3.3500000000000001 5.1500000000000012 4.4500000000000011
decision_type=2 2 2 2
left_child=1 -1 3 -2
right_child=2 -3 -4 -5
leaf_value=0.067278384806641209 -0.07677962052721371 0.088426122241267571 -0.076073446826874072 -0.078041283766853736
leaf_weight=5.6787444353103655 3.6021984070539457 7.9340985417366028 4.8705473244190207 6.2851210683584213
leaf_count=20 21 30 30 34
internal_value=0 0.0796041 -0.0770839 -0.0775816
internal_weight=0 13.6128 14.7579 9.88732
internal_count=135 50 85 55
is_linear=0
shrinkage=0.1


Tree=28
num_leaves=5
num_cat=0
split_feature=3 2 3 2
split_gain=5.42509 8.67067 0.632698 0.00177897
threshold=0.45000000000000007 5.0500000000000007 1.4500000000000002 1.4500000000000002
decision_type=2 2 2 2
left_child=3 2 -2 -1
right_child=1 -3 -4 -5
leaf_value=-0.074697024907378576 0.083847891670008834 -0.068606015501189763 0.042628584572185463 -0.077917858215973052
leaf_weight=3.3037520498037365 9.0636658072471636 6.8115670233964911 6.3208381384611121 3.5657457560300827
leaf_count=23 30 38 21 23
internal_value=0 0.0253244 0.0669126 -0.0763689
internal_weight=0 22.1961 15.3845 6.8695
internal_count=135 89 51 46
is_linear=0
shrinkage=0.1


Tree=29
num_leaves=6
num_cat=0
split_feature=2 2 2 1 1
split_gain=14.2815 0.524624 0.487716 0.00035466 8.82311e-06
threshold=4.8500000000000005 4.4500000000000011 5.3500000000000005 3.3500000000000001 2.9500000000000006
decision_type=2 2 2 2 2
left_child=1 3 -2 4 -1
right_child=2 -3 -4 -5 -6
leaf_value=-0.076318214672375539 0.054162149349906923 -0.035185932779592519 0.091637024471323339 -0.075291769363520555 -0.076545433372903704
leaf_weight=3.4665362089872378 6.4921503365039808 4.3591604232788077 7.4674138724803925 4.5622782558202744 3.3706720322370529
leaf_count=21 20 17 27 30 20
internal_value=0 -0.0646916 0.0742086 -0.0759746 -0.0764302
internal_weight=0 15.7586 13.9596 11.3995 6.83721
internal_count=135 88 47 71 41
is_linear=0
shrinkage=0.1


Tree=30
num_leaves=6
num_cat=0
split_feature=3 1 1 2 0
split_gain=15.0166 0.382311 0.00593807 0.0013007 0.000160199
threshold=0.45000000000000007 3.1500000000000008 2.6500000000000008 1.4500000000000002 6.3500000000000005
decision_type=2 2 2 2 2
left_child=3 2 -2 -1 -4
right_child=1 -3 4 -5 -6
leaf_value=0.083729976558436309 -0.080693084620582972 -0.038429917148112419 -0.076109364246666589 0.085881402849233457 -0.07521864774817652
leaf_weight=5.575948968529703 3.3667045235633841 3.2746502608060828 4.377981096506117 5.6652145832777023 3.7477300465106964
leaf_count=23 19 18 27 23 25
internal_value=0 -0.0685728 -0.0771617 0.0848142 -0.0756985
internal_weight=0 14.7671 11.4924 11.2412 8.12571
internal_count=135 89 71 46 52
is_linear=0
shrinkage=0.1


Tree=31
num_leaves=5
num_cat=0
split_feature=3 2 3 2
split_gain=4.7184 7.24767 0.608013 0.00127205
threshold=0.45000000000000007 5.0500000000000007 1.4500000000000002 1.4500000000000002
decision_type=2 2 2 2
left_child=3 2 -2 -1
right_child=1 -3 -4 -5
leaf_value=-0.073705038752923044 0.079740915580607599 -0.065947097724979906 0.038715201932740036 -0.076575506345671521
leaf_weight=2.971127018332484 8.5185623466968554 6.2705209255218497 6.2723252475261679 3.2136765345931053
leaf_count=23 30 38 21 23
internal_value=0 0.0241479 0.0623433 -0.0751966
internal_weight=0 21.0614 14.7909 6.1848
internal_count=135 89 51 46
is_linear=0
shrinkage=0.1


Tree=32
num_leaves=6
num_cat=0
split_feature=3 2 3 3 1
split_gain=12.3265 1.16103 0.136781 0.000762959 0.000214194
threshold=1.6500000000000001 4.5500000000000007 1.9500000000000002 1.1000000000000003 3.3500000000000001
decision_type=2 2 2 2 2
left_child=1 3 -2 4 -1
right_child=2 -3 -4 -5 -6
leaf_value=-0.075193678308355077 0.064930298523090874 -0.01411115011426399 0.086224219680069714 -0.076399287156543053 -0.074135289498357446
leaf_weight=3.6033698692917842 5.6890059709548932 4.2999746650457373 6.4216387271881104 3.5830425471067429 4.0739709883928299
leaf_count=24 19 15 25 22 30
internal_value=0 -0.0583145 0.0762213 -0.0751944 -0.074632
internal_weight=0 15.5604 12.1106 11.2604 7.67734
internal_count=135 91 44 76 54
is_linear=0
shrinkage=0.1


Tree=33
num_leaves=5
num_cat=0
split_feature=2 1 2 2
split_gain=13.1577 0.133118 0.000514804 0.000407677
threshold=3.4000000000000004 3.3500000000000001 5.1500000000000012 4.4500000000000011
decision_type=2 2 2 2
left_child=1 -1 3 -2
right_child=2 -3 -4 -5
leaf_value=0.06153472405595211 -0.074360019985030792 0.083258067148499051 -0.073923758242370505 -0.075829575058664597
leaf_weight=4.9093786329031008 2.9211152046918851 6.6309172958135605 3.9679247438907614 5.3362849354743958
leaf_count=20 21 30 30 34
internal_value=0 0.0740167 -0.0748599 -0.0753097
internal_weight=0 11.5403 12.2253 8.2574
internal_count=135 50 85 55
is_linear=0
shrinkage=0.1


Tree=34
num_leaves=5
num_cat=0
split_feature=2 2 3 2
split_gain=4.16392 6.18847 0.55749 0.00187834
threshold=1.8 5.0500000000000007 1.4500000000000002 1.4500000000000002
decision_type=2 2 2 2
left_child=3 2 -2 -1
right_child=1 -3 -4 -5
leaf_value=-0.072788470720573928 0.076335037025798178 -0.064014853172972425 0.036240282511228315 -0.076463506055755526
leaf_weight=2.6491412371397045 7.9336680024862307 5.7862883657217017 6.1607823818922043 2.9277971312403679
leaf_count=23 30 38 21 23
internal_value=0 0.0230614 0.0588093 -0.0747178
internal_weight=0 19.8807 14.0945 5.57694
internal_count=135 89 51 46
is_linear=0
shrinkage=0.1


Tree=35
num_leaves=6
num_cat=0
split_feature=3 2 3 3 1
split_gain=10.5803 1.09663 0.144969 0.000626134 0.000150386
threshold=1.6500000000000001 4.5500000000000007 1.9500000000000002 1.1000000000000003 3.3500000000000001
decision_type=2 2 2 2 2
left_child=1 3 -2 4 -1
right_child=2 -3 -4 -5 -6
leaf_value=-0.074103725663589137 0.06111758032874285 -0.01350189094125849 0.08374020896492522 -0.075291923598204469 -0.073166889186444747
leaf_weight=3.2388656511902827 5.4391977041959745 4.2251108288764945 5.9109465181827545 3.2530015110969543 3.6382499486207962
leaf_count=24 19 15 25 22 30
internal_value=0 -0.0562989 0.072899 -0.0741488 -0.0736081
internal_weight=0 14.3552 11.3501 10.1301 6.87712
internal_count=135 91 44 76 54
is_linear=0
shrinkage=0.1


Tree=36
num_leaves=5
num_cat=0
split_feature=2 1 2 3
split_gain=11.4173 0.143118 0.000400873 0.000358711
threshold=3.4000000000000004 3.3500000000000001 5.1500000000000012 1.4500000000000002
decision_type=2 2 2 2
left_child=1 -1 3 -2
right_child=2 -3 -4 -5
leaf_value=0.057932520335250204 -0.073565861973985514 0.08139627658624296 -0.073057724350080663 -0.074958514762559089
leaf_weight=4.5712312608957308 3.3042633235454542 6.0269583612680435 3.566696010529995 4.2009468078613281
leaf_count=20 26 30 30 29
internal_value=0 0.0712758 -0.0739306 -0.0743454
internal_weight=0 10.5982 11.0719 7.50521
internal_count=135 50 85 55
is_linear=0
shrinkage=0.1


Tree=37
num_leaves=6
num_cat=0
split_feature=2 3 3 2 2
split_gain=3.63304 5.30814 0.318729 0.0618115 0.00140617
threshold=1.8 1.6500000000000001 1.9500000000000002 4.4500000000000011 1.4500000000000002
decision_type=2 2 2 2 2
left_child=4 3 -3 -2 -1
right_child=1 2 -4 -5 -6
leaf_value=-0.072045025490715703 0.068680455793866474 -0.029967086753388734 -0.074000025697949001 0.05440881226080433 -0.075401931343730466
leaf_weight=2.3725706189870861 5.9243224114179629 3.6439320743083945 2.9949665442109108 6.2219238877296448 2.6322540938854218
leaf_count=23 25 19 25 20 23
internal_value=0 0.0220699 -0.0498314 0.0613698 -0.0738106
internal_weight=0 18.7851 6.6389 12.1462 5.00482
internal_count=135 89 44 45 46
is_linear=0
shrinkage=0.1


Tree=38
num_leaves=6
num_cat=0
split_feature=3 2 3 2 1
split_gain=9.07285 1.89117 0.152785 0.00323128 0.000168634
threshold=1.6500000000000001 4.7500000000000009 1.9500000000000002 4.2500000000000009 3.3500000000000001
decision_type=2 2 2 2 2
left_child=1 3 -2 4 -1
right_child=2 -3 -4 -5 -6
leaf_value=-0.073256243591346568 0.057530144598460523 0.018535427935702925 0.08155858304593068 -0.076755739169701256 -0.072299129935478032
leaf_weight=4.2832183614373225 5.1944857090711576 2.8046363890171042 5.3942719548940659 2.9394144415855408 3.2283240929245949
leaf_count=35 19 8 25 18 30
internal_value=0 -0.0543777 0.069771 -0.0739448 -0.0728449
internal_weight=0 13.2556 10.5888 10.451 7.51154
internal_count=135 91 44 83 65
is_linear=0
shrinkage=0.1


Tree=39
num_leaves=6
num_cat=0
split_feature=3 1 1 2 0
split_gain=9.95769 0.369906 0.00563049 0.00124001 8.16303e-05
threshold=0.45000000000000007 3.1500000000000008 2.6500000000000008 1.4500000000000002 6.3500000000000005
decision_type=2 2 2 2 2
left_child=3 2 -2 -1 -4
right_child=1 -3 4 -5 -6
leaf_value=0.07764330664335059 -0.078482624591270048 -0.031606637469798256 -0.073287309542151569 0.080067240515510119 -0.072548769244916031
leaf_weight=4.1568795293569583 2.6471933349966985 2.5948136970400801 3.2844899743795395 4.2871269434690475 2.749334305524826
leaf_count=23 19 18 27 23 25
internal_value=0 -0.0647353 -0.0746377 0.078874 -0.0729508
internal_weight=0 11.2758 8.68102 8.44401 6.03382
internal_count=135 89 71 46 52
is_linear=0
shrinkage=0.1


Tree=40
num_leaves=5
num_cat=0
split_feature=3 2 3 2
split_gain=3.22316 4.79447 0.444687 0.00143021
threshold=0.45000000000000007 5.0500000000000007 1.4500000000000002 1.4500000000000002
decision_type=2 2 2 2
left_child=3 2 -2 -1
right_child=1 -3 -4 -5
leaf_value=-0.07140113261900044 0.071387508513653761 -0.061519961546222017 0.033741484877011105 -0.074968524041483103
leaf_weight=2.1227628141641643 6.8712172657251376 4.9947505071759215 5.7747771739959717 2.3881372064352036
leaf_count=23 30 38 21 23
internal_value=0 0.0214329 0.0541965 -0.0732898
internal_weight=0 17.6407 12.646 4.5109
internal_count=135 89 51 46
is_linear=0
shrinkage=0.1


Tree=41
num_leaves=6
num_cat=0
split_feature=2 3 2 2 1
split_gain=7.77807 0.752677 0.65213 0.00238399 0.000131028
threshold=4.8500000000000005 1.4500000000000002 5.1500000000000012 4.0500000000000007 3.3500000000000001
decision_type=2 2 2 2 2
left_child=1 3 -2 4 -1
right_child=2 -3 -4 -5 -6
leaf_value=-0.07247697124237705 0.03384571836908503 -0.012866588752858857 0.082977322788884589 -0.075886535375646422 -0.071552389206956585
leaf_weight=3.304856941103937 4.932237431406973 2.7650047391653052 5.9733288586139679 2.1941657885909081 2.8585086464881897
leaf_count=30 17 12 30 16 30
internal_value=0 -0.0580931 0.0607567 -0.0730559 -0.0720482
internal_weight=0 11.1225 10.9056 8.35753 6.16337
internal_count=135 88 47 76 60
is_linear=0
shrinkage=0.1


Tree=42
num_leaves=6
num_cat=0
split_feature=2 1 0 2 2
split_gain=8.79128 0.331288 0.00460943 0.00207516 0.000165098
threshold=1.8 3.1500000000000008 5.7500000000000009 1.4500000000000002 5.1500000000000012
decision_type=2 2 2 2 2
left_child=3 2 -2 -1 -4
right_child=1 -3 4 -5 -6
leaf_value=0.076123043849875394 -0.07766932748178082 -0.031569594939186131 -0.072661561486814727 0.079423313156019915 -0.071512693214183395
leaf_weight=3.7246558964252499 2.2085352167487127 2.4322416186332703 3.7980442345142365 3.9004194736480713 1.8650722578167913
leaf_count=23 17 18 34 23 20
internal_value=0 -0.0638272 -0.0737944 0.0778112 -0.0722832
internal_weight=0 10.3039 7.87165 7.62508 5.66312
internal_count=135 89 71 46 54
is_linear=0
shrinkage=0.1


Tree=43
num_leaves=5
num_cat=0
split_feature=2 2 1 2
split_gain=2.85758 3.99934 0.450278 0.00185574
threshold=1.8 5.0500000000000007 2.8500000000000001 1.4500000000000002
decision_type=2 2 2 2
left_child=3 2 -2 -1
right_child=1 -3 -4 -5
leaf_value=-0.070792810207494089 0.03314384870987909 -0.058837086321614857 0.071971524786476768 -0.075082586469484514
leaf_weight=1.8814313858747507 6.5639423727989215 4.5957384631037703 5.4804819673299789 2.1733142286539078
leaf_count=23 28 38 23 23
internal_value=0 0.0205282 0.0508113 -0.0730921
internal_weight=0 16.6402 12.0444 4.05475
internal_count=135 89 51 46
is_linear=0
shrinkage=0.1


Tree=44
num_leaves=7
num_cat=0
split_feature=3 2 3 2 1 1
split_gain=6.72174 1.90852 0.166668 0.00533414 0.000106766 8.41666e-06
threshold=1.6500000000000001 4.8500000000000005 1.9500000000000002 4.4500000000000011 3.3500000000000001 2.9500000000000006
decision_type=2 2 2 2 2 2
left_child=1 3 -2 4 5 -1
right_child=2 -3 -4 -5 -6 -7
leaf_value=-0.071618926083373655 0.051282666474077754 0.026115230054971697 0.07821107227201203 -0.077149106094460934 -0.070935639833660372 -0.071907576595278272
leaf_weight=2.0204399079084414 4.7389347553253156 2.5050418972969046 4.4630473405122757 2.1825398355722427 2.5378223359584808 2.0202463567256927
leaf_count=21 19 7 25 13 30 20
internal_value=0 -0.0508567 0.0643432 -0.0728652 -0.071444 -0.0717632
internal_weight=0 11.2661 9.20198 8.76105 6.57851 4.04069
internal_count=135 91 44 84 71 41
is_linear=0
shrinkage=0.1


Tree=45
num_leaves=5
num_cat=0
split_feature=2 1 2 3
split_gain=7.75718 0.143149 0.000232106 0.000249731
threshold=3.4000000000000004 3.3500000000000001 5.1500000000000012 1.4500000000000002
decision_type=2 2 2 2
left_child=1 -1 3 -2
right_child=2 -3 -4 -5
leaf_value=0.051040647487651747 -0.071474458735217433 0.077960118458587246 -0.071099225256861839 -0.072813348048400145
leaf_weight=3.5275299847126025 2.4314562082290632 4.4895321428775787 2.5866962000727654 3.2621665000915527
leaf_count=20 26 30 30 29
internal_value=0 0.0661155 -0.0718847 -0.0722416
internal_weight=0 8.01706 8.28032 5.69362
internal_count=135 50 85 55
is_linear=0
shrinkage=0.1


Tree=46
num_leaves=6
num_cat=0
split_feature=3 3 1 2 2
split_gain=2.49906 3.41343 0.705334 0.0498871 0.00178342
threshold=0.45000000000000007 1.6500000000000001 2.9500000000000006 4.4500000000000011 1.4500000000000002
decision_type=2 2 2 2 2
left_child=4 3 -3 -2 -1
right_child=1 2 -4 -5 -6
leaf_value=-0.070264485635999172 0.061351661295037413 -0.082763482019598572 -0.011050806354141936 0.047310002125886277 -0.074715164159840863
leaf_weight=1.6648833528161078 4.6795288771390897 2.5273489579558364 2.9989968985319138 5.5086778104305267 1.9605443924665449
leaf_count=23 25 17 27 20 23
internal_value=0 0.0194341 -0.043847 0.0537595 -0.0726713
internal_weight=0 15.7146 5.52635 10.1882 3.62543
internal_count=135 89 44 45 46
is_linear=0
shrinkage=0.1


Tree=47
num_leaves=7
num_cat=0
split_feature=3 2 3 2 1 1
split_gain=5.84516 1.71309 0.1701 0.00390388 8.27814e-05 1.35769e-06
threshold=1.6500000000000001 4.8500000000000005 1.9500000000000002 4.4500000000000011 3.3500000000000001 2.9500000000000006
decision_type=2 2 2 2 2 2
left_child=1 3 -2 4 5 -1
right_child=2 -3 -4 -5 -6 -7
leaf_value=-0.071118329853271309 0.048812107814136724 0.023046341654391428 0.076958092372898412 -0.076003991299905108 -0.070407260094275767 -0.07124051786330636
leaf_weight=1.8429867923259755 4.5502090752124769 2.4846532344818115 4.0658145248889923 1.9926780164241789 2.2528153210878372 1.7951361984014509
leaf_count=21 19 7 25 13 30 20
internal_value=0 -0.0493583 0.0620939 -0.0721779 -0.0708836 -0.0711786
internal_weight=0 10.3683 8.61602 7.88362 5.89094 3.63812
internal_count=135 91 44 84 71 41
is_linear=0
shrinkage=0.1


Tree=48
num_leaves=5
num_cat=0
split_feature=2 1 2 3
split_gain=6.77467 0.227316 0.000193544 0.000202089
threshold=3.4000000000000004 3.2500000000000004 5.1500000000000012 1.4500000000000002
decision_type=2 2 2 2
left_child=1 -1 3 -2
right_child=2 -3 -4 -5
leaf_value=0.041827667907705722 -0.070940016224104729 0.07802448001839965 -0.070566898525878732 -0.072205267906886292
leaf_weight=2.8276894986629486 2.1911196783185005 4.4896093606948853 2.3036766201257706 2.9782310202717781
leaf_count=18 26 32 30 29
internal_value=0 0.0640366 -0.0713292 -0.071669
internal_weight=0 7.3173 7.47303 5.16935
internal_count=135 50 85 55
is_linear=0
shrinkage=0.1


Tree=49
num_leaves=5
num_cat=0
split_feature=2 2 1 2
split_gain=2.21639 3.10251 0.430855 0.00160832
threshold=1.8 5.0500000000000007 2.8500000000000001 1.4500000000000002
decision_type=2 2 2 2
left_child=3 2 -2 -1
right_child=1 -3 -4 -5
leaf_value=-0.069844604228788285 0.028665456099075316 -0.055908793925049362 0.068871527073781469 -0.074306673104150275
leaf_weight=1.484814304858449 5.8701921999454481 4.0353094264864913 4.881899282336235 1.7716165781021116
leaf_count=23 28 38 23 23
internal_value=0 0.0188597 0.0469207 -0.0722721
internal_weight=0 14.7874 10.7521 3.25643
internal_count=135 89 51 46
is_linear=0
shrinkage=0.1


Tree=50
num_leaves=7
num_cat=0
split_feature=3 2 3 2 1 1
split_gain=4.86956 1.65629 0.197077 0.00292128 6.82313e-05 1.37753e-06
threshold=1.6500000000000001 4.8500000000000005 1.9500000000000002 4.4500000000000011 3.3500000000000001 2.9500000000000006
decision_type=2 2 2 2 2 2
left_child=1 3 -2 4 5 -1
right_child=2 -3 -4 -5 -6 -7
leaf_value=-0.070601983535831567 0.044221679892862679 0.023355731759858247 0.075697207979238346 -0.075026642679296263 -0.069923264051424613 -0.07073176955950182
leaf_weight=1.6527820006012937 4.3125149607658368 2.4810269176959991 3.6925277858972549 1.82750878483057 1.9869574606418607 1.6187587082386015
leaf_count=21 19 7 25 13 30 20
internal_value=0 -0.0469621 0.0587406 -0.0715825 -0.0703855 -0.0706662
internal_weight=0 9.56703 8.00504 7.08601 5.2585 3.27154
internal_count=135 91 44 84 71 41
is_linear=0
shrinkage=0.1


Tree=51
num_leaves=6
num_cat=0
split_feature=3 1 0 2 0
split_gain=5.95669 0.346994 0.00475669 0.00126159 6.77967e-05
threshold=0.45000000000000007 3.1500000000000008 5.7500000000000009 1.4500000000000002 6.3500000000000005
decision_type=2 2 2 2 2
left_child=3 2 -2 -1 -4
right_child=1 -3 4 -5 -6
leaf_value=0.072970854486526501 -0.076900505860135804 -0.02365568889725312 -0.071085954574307705 0.075987440248313221 -0.070279394820122562
leaf_weight=2.6852089166641235 1.7691788151860235 1.9172847792506216 2.2963725402951241 2.8662665486335754 1.9081290662288664
leaf_count=23 17 18 27 23 27
internal_value=0 -0.0606703 -0.0725504 0.0745283 -0.0707199
internal_weight=0 7.89097 5.97368 5.55148 4.2045
internal_count=135 89 71 46 54
is_linear=0
shrinkage=0.1


Tree=52
num_leaves=5
num_cat=0
split_feature=3 2 1 2
split_gain=1.97412 2.6395 0.422023 0.00144732
threshold=0.45000000000000007 5.0500000000000007 2.8500000000000001 1.4500000000000002
decision_type=2 2 2 2
left_child=3 2 -2 -1
right_child=1 -3 -4 -5
leaf_value=-0.069484043256280881 0.026285051421875545 -0.053483493283508779 0.067127016950129473 -0.073947269540857105
leaf_weight=1.3255725875496893 5.6375597417354566 3.7480656951665869 4.5898364335298538 1.6077814474701879
leaf_count=23 28 38 23 23
internal_value=0 0.0183054 0.0446141 -0.0719304
internal_weight=0 13.9755 10.2274 2.93335
internal_count=135 89 51 46
is_linear=0
shrinkage=0.1


Tree=53
num_leaves=7
num_cat=0
split_feature=3 2 3 2 3 1
split_gain=4.22851 2.73791 0.197765 0.0248854 0.000191214 5.37507e-05
threshold=1.6500000000000001 4.9500000000000011 1.9500000000000002 4.5500000000000007 1.2500000000000002 3.3500000000000001
decision_type=2 2 2 2 2 2
left_child=1 3 -2 4 5 -1
right_child=2 -3 -4 -5 -6 -7
leaf_value=-0.070252398314694306 0.041994690275767889 0.064619787104621226 0.074707395400316998 -0.084041019565702951 -0.071230433081046346 -0.069495446667083682
leaf_weight=2.0268146917223953 4.1505734026432028 1.795938968658447 3.3313546851277351 1.7493414655327795 1.5201791897416113 1.7464103884994981
leaf_count=28 19 5 25 10 18 30
internal_value=0 -0.0455953 0.0565601 -0.0737007 -0.0702835 -0.069902
internal_weight=0 8.83868 7.48193 7.04275 5.2934 3.77323
internal_count=135 91 44 86 76 58
is_linear=0
shrinkage=0.1


Tree=54
num_leaves=6
num_cat=0
split_feature=2 1 0 2 0
split_gain=5.31618 0.313216 0.0038227 0.00186702 5.50044e-05
threshold=1.8 3.1500000000000008 5.7500000000000009 1.4500000000000002 6.3500000000000005
decision_type=2 2 2 2 2
left_child=3 2 -2 -1 -4
right_child=1 -3 4 -5 -6
leaf_value=0.072134267900144128 -0.076103696948857463 -0.023784325632227044 -0.070654528024273092 0.076007917419250393 -0.069890408039899363
leaf_weight=2.3825452700257301 1.6256226897239683 1.7873239219188688 2.0941194146871571 2.6043110191822052 1.7123716846108434
leaf_count=23 17 18 27 23 27
internal_value=0 -0.0600966 -0.0720444 0.0741572 -0.0703108
internal_weight=0 7.21944 5.43211 4.98686 3.80649
internal_count=135 89 71 46 54
is_linear=0
shrinkage=0.1


Tree=55
num_leaves=6
num_cat=0
split_feature=2 3 1 2 2
split_gain=1.76678 2.20902 0.770806 0.182571 0.00178162
threshold=1.8 1.6500000000000001 2.9500000000000006 4.5500000000000007 1.4500000000000002
decision_type=2 2 2 2 2
left_child=4 3 -3 -2 -1
right_child=1 2 -4 -5 -6
leaf_value=-0.069126367084569998 0.061425952923895494 -0.081636129443069527 -0.00032162810161867768 0.031925461715803273 -0.07435476069565837
leaf_weight=1.1689401976764213 4.6360661610960943 2.143868923187255 2.5551718100905418 3.8317264914512634 1.4730428829789159
leaf_count=23 30 17 27 15 23
internal_value=0 0.0175642 -0.0374202 0.0480768 -0.0720415
internal_weight=0 13.1668 4.69904 8.46779 2.64198
internal_count=135 89 44 45 46
is_linear=0
shrinkage=0.1


Tree=56
num_leaves=7
num_cat=0
split_feature=3 2 1 2 3 1
split_gain=3.69874 2.39522 0.505719 0.0187954 0.000144405 4.16795e-05
threshold=1.6500000000000001 4.9500000000000011 2.9500000000000006 4.5500000000000007 1.2500000000000002 3.3500000000000001
decision_type=2 2 2 2 2 2
left_child=1 3 -2 4 5 -1
right_child=2 -3 -4 -5 -6 -7
leaf_value=-0.069854605072321094 0.085589940670053516 0.058789865004937353 0.031400102696957748 -0.082372754982007357 -0.070746578933530174 -0.069148221090818099
leaf_weight=1.8210738189518436 3.0113922730088243 1.7591806352138517 4.0226201564073563 1.615711413323879 1.3761241920292375 1.5430832318961618
leaf_count=28 17 5 27 10 18 30
internal_value=0 -0.0444768 0.0545998 -0.0730584 -0.0698836 -0.0695306
internal_weight=0 8.11517 7.03401 6.35599 4.74028 3.36416
internal_count=135 91 44 86 76 58
is_linear=0
shrinkage=0.1


Tree=57
num_leaves=5
num_cat=0
split_feature=2 1 3 3
split_gain=4.69623 0.224732 9.18687e-05 8.90136e-05
threshold=3.4000000000000004 3.2500000000000004 1.8500000000000003 1.4500000000000002
decision_type=2 2 2 2
left_child=1 -1 3 -2
right_child=2 -3 -4 -5
leaf_value=0.034763932483435379 -0.069809024615472282 0.076291785378507782 -0.069467255212512707 -0.070772546947785717
leaf_weight=2.1307286098599434 1.7111088521778586 3.3550105392932892 1.697185583412647 2.1808245144784451
leaf_count=18 27 32 30 28
internal_value=0 0.0601619 -0.0700812 -0.0703489
internal_weight=0 5.48574 5.58912 3.89193
internal_count=135 50 85 55
is_linear=0
shrinkage=0.1


Tree=58
num_leaves=5
num_cat=0
split_feature=3 2 1 2
split_gain=1.55323 1.97426 0.399078 0.00156568
threshold=0.45000000000000007 5.0500000000000007 2.8500000000000001 1.4500000000000002
decision_type=2 2 2 2
left_child=3 2 -2 -1
right_child=1 -3 -4 -5
leaf_value=-0.068814745980369824 0.021938806212416236 -0.049147390007465618 0.064138452565108403 -0.074008931843310588
leaf_weight=1.0298352129757415 4.9612893685698491 3.3210449256002894 4.0871228277683258 1.3295023553073404
leaf_count=23 28 38 23 23
internal_value=0 0.0167967 0.0410002 -0.0717417
internal_weight=0 12.3695 9.04841 2.35934
internal_count=135 89 51 46
is_linear=0
shrinkage=0.1


Tree=59
num_leaves=7
num_cat=0
split_feature=3 2 3 2 3 1
split_gain=3.08293 2.21874 0.379487 0.0146027 0.000102809 2.79742e-05
threshold=1.6500000000000001 4.9500000000000011 1.8500000000000003 4.5500000000000007 1.2500000000000002 3.3500000000000001
decision_type=2 2 2 2 2 2
left_child=1 3 -2 4 5 -1
right_child=2 -3 -4 -5 -6 -7
leaf_value=-0.069465898605248932 0.025575245539925875 0.056345837189822529 0.073661513175880419 -0.080979158197263604 -0.070270888841834342 -0.068851028049551261
leaf_weight=1.6164113059639933 3.053531289100647 1.7435289621353147 3.5482431277632713 1.5045896768569944 1.2305081561207769 1.3645780012011526
leaf_count=28 14 5 30 10 18 30
internal_value=0 -0.0424026 0.0514201 -0.0725229 -0.0695019 -0.0691844
internal_weight=0 7.45962 6.60177 5.71609 4.2115 2.98099
internal_count=135 91 44 86 76 58
is_linear=0
shrinkage=0.1


Tree=60
num_leaves=6
num_cat=0
split_feature=2 1 1 2 3
split_gain=4.13011 0.308081 0.00387597 0.00138294 2.46264e-05
threshold=1.8 3.1500000000000008 2.5500000000000003 1.4500000000000002 1.6500000000000001
decision_type=2 2 2 2 2
left_child=3 2 -2 -1 -4
right_child=1 -3 4 -5 -6
leaf_value=0.070879494386647701 -0.076092730795933816 -0.01995093831801438 -0.069799794198980608 0.074603140687407837 -0.069244415937109588
leaf_weight=1.8913836777210233 1.2590960152447221 1.5721598416566847 1.7925037890672686 2.1101385205984116 1.4396393671631811
leaf_count=23 14 18 29 23 28
internal_value=0 -0.0580495 -0.071386 0.0728431 -0.0695524
internal_weight=0 6.0634 4.49124 4.00152 3.23214
internal_count=135 89 71 46 57
is_linear=0
shrinkage=0.1


Tree=61
num_leaves=5
num_cat=0
split_feature=2 2 1 3
split_gain=1.38856 1.62342 0.383707 0.00264531
threshold=1.8 5.0500000000000007 2.8500000000000001 0.25000000000000006
decision_type=2 2 2 2
left_child=3 2 -2 -1
right_child=1 -3 -4 -5
leaf_value=-0.068520851129711444 0.019650463945893936 -0.045971652631829174 0.062118714044922654 -0.075670780096266349
leaf_weight=1.2384095899760734 4.7619539871811849 3.0802482180297366 3.8456209227442741 0.88885006681084622
leaf_count=32 28 38 23 14
internal_value=0 0.0163294 0.0386241 -0.0715084
internal_weight=0 11.6878 8.60757 2.12726
internal_count=135 89 51 46
is_linear=0
shrinkage=0.1


Tree=62
num_leaves=7
num_cat=0
split_feature=3 2 2 2 3 1
split_gain=2.69732 1.9474 0.411436 0.0110503 7.66068e-05 2.59934e-05
threshold=1.6500000000000001 4.9500000000000011 5.0500000000000007 4.5500000000000007 1.2500000000000002 3.3500000000000001
decision_type=2 2 2 2 2 2
left_child=1 3 -2 4 5 -1
right_child=2 -3 -4 -5 -6 -7
leaf_value=-0.069197446249200725 0.020305070236796514 0.051358286744820181 0.072241965499450264 -0.079641382706934633 -0.069903186837325021 -0.068570042607542028
leaf_weight=1.4727442450821406 2.7130335122346878 1.7003879547119138 3.4840169474482536 1.3868362605571745 1.1145438179373739 1.1970849968492983
leaf_count=28 10 5 34 10 18 30
internal_value=0 -0.0414787 0.0495043 -0.0720052 -0.0692068 -0.0689161
internal_weight=0 6.8716 6.19705 5.17121 3.78437 2.66983
internal_count=135 91 44 86 76 58
is_linear=0
shrinkage=0.1


Tree=63
num_leaves=5
num_cat=0
split_feature=2 1 3 3
split_gain=3.66679 0.231723 6.80846e-05 5.12359e-05
threshold=3.4000000000000004 3.2500000000000004 1.8500000000000003 1.4500000000000002
decision_type=2 2 2 2
left_child=1 -1 3 -2
right_child=2 -3 -4 -5
leaf_value=0.029240962041610426 -0.069251561628988823 0.075397870634576411 -0.068854482562338309 -0.070052163982883581
leaf_weight=1.7956064343452451 1.4235701449215414 2.7587438486516476 1.3427095040678976 1.8229961581528185
leaf_count=18 27 32 30 28
internal_value=0 0.0572 -0.0694534 -0.0697011
internal_weight=0 4.55435 4.58928 3.24657
internal_count=135 50 85 55
is_linear=0
shrinkage=0.1


Tree=64
num_leaves=6
num_cat=0
split_feature=3 3 1 2 0
split_gain=1.25064 1.44061 0.768427 0.142046 2.16325e-05
threshold=0.45000000000000007 1.6500000000000001 2.9500000000000006 4.5500000000000007 4.9500000000000011
decision_type=2 2 2 2 2
left_child=4 3 -3 -2 -1
right_child=1 2 -4 -5 -6
leaf_value=-0.072062913920823646 0.056887782008339063 -0.080537658641249704 0.0068326788741544008 0.028273754568721034 -0.071391297938927775
leaf_weight=0.90153322927653867 3.6534251794218999 1.7934531383216379 2.2945282496511936 3.303691953420639 1.0246751736849544
leaf_count=19 30 17 27 15 27
internal_value=0 0.015616 -0.0314979 0.0433 -0.0717056
internal_weight=0 11.0451 4.08798 6.95712 1.92621
internal_count=135 89 44 45 46
is_linear=0
shrinkage=0.1


Tree=65
num_leaves=7
num_cat=0
split_feature=3 2 2 2 3 0
split_gain=2.37579 1.71177 0.382273 0.00840441 6.34774e-05 8.91789e-06
threshold=1.6500000000000001 4.9500000000000011 5.0500000000000007 4.5500000000000007 0.45000000000000007 4.9500000000000011
decision_type=2 2 2 2 2 2
left_child=1 3 -2 4 5 -1
right_child=2 -3 -4 -5 -6 -7
leaf_value=-0.068764178393159445 0.020349201842546859 0.046820986784109855 0.07161238490225133 -0.078457685540683678 -0.069392626449386249 -0.068315055781354911
leaf_weight=0.83353785052895568 2.7084761559963226 1.6552829146385191 3.1423511132597923 1.2771100997924802 1.6131852827966211 0.94147412851452827
leaf_count=19 10 5 34 10 30 27
internal_value=0 -0.040546 0.0478815 -0.0715444 -0.0689386 -0.068526
internal_weight=0 6.32059 5.85083 4.66531 3.3882 1.77501
internal_count=135 91 44 86 76 46
is_linear=0
shrinkage=0.1


Tree=66
num_leaves=6
num_cat=0
split_feature=3 1 1 2 3
split_gain=3.22247 0.3015 0.00311477 0.00103031 1.64417e-05
threshold=0.45000000000000007 3.1500000000000008 2.5500000000000003 1.4500000000000002 1.6500000000000001
decision_type=2 2 2 2 2
left_child=3 2 -2 -1 -4
right_child=1 -3 4 -5 -6
leaf_value=0.069929945441125393 -0.07533423210643464 -0.015869903227890315 -0.069216883691392506 0.073521209770291668 -0.068711532470994749
leaf_weight=1.4948103949427607 1.1018092706799509 1.361344303935766 1.473973482847214 1.7158725410699842 1.1431075651198623
leaf_count=23 14 18 29 23 28
internal_value=0 -0.0561346 -0.070874 0.0718492 -0.0689962
internal_weight=0 5.08023 3.71889 3.21068 2.61708
internal_count=135 89 71 46 57
is_linear=0
shrinkage=0.1


Tree=67
num_leaves=6
num_cat=0
split_feature=3 3 1 2 2
split_gain=1.09784 1.17677 0.75117 0.138576 0.0010947
threshold=0.45000000000000007 1.6500000000000001 2.9500000000000006 4.5500000000000007 1.4500000000000002
decision_type=2 2 2 2 2
left_child=4 3 -3 -2 -1
right_child=1 2 -4 -5 -6
leaf_value=-0.068155502678678551 0.05507740892122287 -0.07962793114408874 0.009333037051810834 0.02595379548064021 -0.07326705361249114
leaf_weight=0.71940972842276174 3.3631100729107839 1.6539968326687815 2.2273336052894592 3.1773334294557571 1.0032776985317466
leaf_count=23 30 17 27 15 23
internal_value=0 0.0150434 -0.0285769 0.0409292 -0.0711324
internal_weight=0 10.4218 3.88133 6.54044 1.72269
internal_count=135 89 44 45 46
is_linear=0
shrinkage=0.1


Tree=68
num_leaves=7
num_cat=0
split_feature=2 3 2 2 1 0
split_gain=1.9726 1.31737 0.325309 0.00046833 1.90118e-05 6.70393e-07
threshold=5.1500000000000012 1.6500000000000001 4.8500000000000005 4.4500000000000011 3.3500000000000001 5.1500000000000012
decision_type=2 2 2 2 2 2
left_child=1 2 3 4 5 -1
right_child=-2 -3 -4 -5 -6 -7
leaf_value=-0.068627412427954546 0.074958747867095527 0.027746955176579654 -0.014761361040984917 -0.071012616249576554 -0.068132214885476092 -0.068751449848994076
leaf_weight=0.82940043136477359 2.7794827669858941 3.2756609320640564 1.5613402277231214 1.0248615369200704 0.92646510154008854 0.91804246231913567
leaf_count=20 30 16 5 13 30 21
internal_value=0 -0.022036 -0.0530377 -0.0691951 -0.0684984 -0.0686926
internal_weight=0 8.53577 5.26011 3.69877 2.67391 1.74744
internal_count=135 105 89 84 71 41
is_linear=0
shrinkage=0.1


Tree=69
num_leaves=6
num_cat=0
split_feature=2 3 2 3 3
split_gain=2.90374 0.27547 0.00139824 4.92574e-05 3.35181e-05
threshold=1.8 1.1000000000000003 1.4500000000000002 1.8500000000000003 1.4500000000000002
decision_type=2 2 2 2 2
left_child=2 -2 -1 4 -3
right_child=1 3 -4 -5 -6
leaf_value=0.069509480422848921 -0.010704005367076375 -0.068766138971023308 0.073926311034063316 -0.068411555878067937 -0.069513824683849604
leaf_weight=1.3176551945507529 1.0480584092438219 0.98619585856795389 1.5716074258089063 1.0733453445136545 1.5293854735791681
leaf_count=23 8 23 23 30 28
internal_value=0 -0.0558074 0.071912 -0.0689787 -0.0692207
internal_weight=0 4.63699 2.88926 3.58893 2.51558
internal_count=135 89 46 81 51
is_linear=0
shrinkage=0.1


Tree=70
num_leaves=6
num_cat=0
split_feature=1 2 0 3 2
split_gain=0.776903 0.819823 0.549385 0.73047 0.084658
threshold=3.2500000000000004 5.0500000000000007 6.1500000000000012 1.4500000000000002 1.8
decision_type=2 2 2 2 2
left_child=1 2 3 -1 -2
right_child=4 -3 -4 -5 -6
leaf_value=0.04647663513040616 -0.073216621316219185 -0.036690250575011303 0.069631690829264847 -0.033715948294045187 -0.031754162363253853
leaf_weight=2.5842804703861457 1.0720166657119996 2.3351603746414185 2.4753942713141441 2.0266847684979439 0.91086138784885395
leaf_count=37 30 31 17 9 11
internal_value=0 0.0146967 0.0316302 0.0112291 -0.0541703
internal_weight=0 9.42152 7.08636 4.61097 1.98288
internal_count=135 94 63 46 41
is_linear=0
shrinkage=0.1


Tree=71
num_leaves=7
num_cat=0
split_feature=2 3 2 2 1 0
split_gain=1.79022 1.07985 0.334323 0.000362288 1.34463e-05 5.6984e-07
threshold=5.1500000000000012 1.6500000000000001 4.8500000000000005 4.4500000000000011 3.3500000000000001 5.1500000000000012
decision_type=2 2 2 2 2 2
left_child=1 2 3 4 5 -1
right_child=-2 -3 -4 -5 -6 -7
leaf_value=-0.068394443761398846 0.074544518332517726 0.024226848484230713 -0.012728296133208162 -0.070609840061021792 -0.067957130117625927 -0.068515729308018955
leaf_weight=0.73443371430039295 2.5678110048174867 3.1474287956953049 1.5558408945798872 0.93552619963884343 0.81605875305831421 0.81976369395852089
leaf_count=20 30 16 5 13 30 21
internal_value=0 -0.0214087 -0.0509532 -0.0689435 -0.0682858 -0.0684584
internal_weight=0 8.00905 4.86162 3.30578 2.37026 1.5542
internal_count=135 105 89 84 71 41
is_linear=0
shrinkage=0.1


Tree=72
num_leaves=5
num_cat=0
split_feature=2 1 2 3
split_gain=2.57814 0.208139 3.94525e-05 3.56912e-05
threshold=3.4000000000000004 3.2500000000000004 5.1500000000000012 1.4500000000000002
decision_type=2 2 2 2
left_child=1 -1 3 -2
right_child=2 -3 -4 -5
leaf_value=0.024197639766248169 -0.068504330826800311 0.074133634509924412 -0.06820651588139813 -0.069281236551922851
leaf_weight=1.4049910902976992 0.98982926085591394 2.0563568025827408 0.93916603736579407 1.4687568098306654
leaf_count=18 26 32 30 29
internal_value=0 0.0538642 -0.0687578 -0.0689685
internal_weight=0 3.46135 3.39775 2.45859
internal_count=135 50 85 55
is_linear=0
shrinkage=0.1


Tree=73
num_leaves=5
num_cat=0
split_feature=0 2 2 0
split_gain=0.679423 1.01613 0.216305 0.211101
threshold=5.1500000000000012 4.8500000000000005 5.0500000000000007 5.9500000000000011
decision_type=2 2 2 2
left_child=-1 3 -3 -2
right_child=1 2 -4 -5
leaf_value=-0.044797528117802965 0.078317298064086507 0.0075960914798763662 -0.037136437579242641 0.032198647003935627
leaf_weight=2.3450671639293441 1.7554068062454442 1.9424761682748792 2.4373883605003357 2.2837599292397499
leaf_count=38 30 9 38 20
internal_value=0 0.016065 -0.0172975 0.0522416
internal_weight=0 8.41903 4.37986 4.03917
internal_count=135 97 47 50
is_linear=0
shrinkage=0.1


Tree=74
num_leaves=6
num_cat=0
split_feature=2 1 0 1 0
split_gain=1.57707 1.03022 0.31012 1.03763 0.137164
threshold=5.1500000000000012 2.8500000000000001 6.1500000000000012 3.0500000000000003 5.1500000000000012
decision_type=2 2 2 2 2
left_child=1 -1 3 -3 -5
right_child=-2 2 -4 4 -6
leaf_value=0.016167185552778171 0.073820022561168222 0.027629699590024107 -0.10425877705414031 -0.068027221992861819 -0.12916154903698526
leaf_weight=3.8139131926000118 2.3210295923054218 1.2372894678264863 1.0341731179505584 0.78631549328565575 0.68821947835385799
leaf_count=34 30 16 12 28 15
internal_value=0 -0.0204179 -0.0576664 -0.039898 -0.0965609
internal_weight=0 7.55991 3.746 2.71182 1.47453
internal_count=135 105 71 59 43
is_linear=0
shrinkage=0.1


Tree=75
num_leaves=6
num_cat=0
split_feature=2 1 1 2 0
split_gain=2.35127 0.248576 0.00260115 0.000665048 6.99717e-06
threshold=1.8 3.1500000000000008 2.5500000000000003 1.4500000000000002 6.3500000000000005
decision_type=2 2 2 2 2
left_child=3 2 -2 -1 -4
right_child=1 -3 4 -5 -6
leaf_value=0.069065919189963312 -0.074877772574252641 -0.014179579168406661 -0.068555097204610602 0.072411234932545532 -0.068164475483711059
leaf_weight=1.1008995398879053 0.91571708209812719 1.0831755511462686 1.1650964412838218 1.2913086935877798 0.75621499121189106
leaf_count=23 14 18 31 23 26
internal_value=0 -0.0549324 -0.0704918 0.0708717 -0.0684014
internal_weight=0 3.9202 2.83703 2.39221 1.92131
internal_count=135 89 71 46 57
is_linear=0
shrinkage=0.1


Tree=76
num_leaves=6
num_cat=0
split_feature=1 3 2 1 2
split_gain=0.6257 0.616842 0.34823 0.153122 0.0687311
threshold=3.2500000000000004 1.6500000000000001 4.8500000000000005 2.8500000000000001 1.8
decision_type=2 2 2 2 2
left_child=1 2 3 -1 -2
right_child=4 -3 -4 -5 -6
leaf_value=0.072251747879535089 -0.071818032333573853 -0.020297671864056083 0.0010504925779347798 0.02937428345474663 -0.031362464977914568
leaf_weight=1.9637629166245445 0.88947207294404573 3.2731304783374071 1.9459607154130933 1.4462727606296537 0.79555926844477654
leaf_count=21 30 37 7 29 11
internal_value=0 0.0139036 0.0348045 0.0540665 -0.0527176
internal_weight=0 8.62913 5.356 3.41004 1.68503
internal_count=135 94 57 50 41
is_linear=0
shrinkage=0.1


Tree=77
num_leaves=7
num_cat=0
split_feature=2 3 2 2 3 1
split_gain=1.38187 0.919374 0.602696 0.00440951 2.39546e-05 5.66128e-06
threshold=5.1500000000000012 1.6500000000000001 4.9500000000000011 4.5500000000000007 0.45000000000000007 3.2500000000000004
decision_type=2 2 2 2 2 2
left_child=1 2 3 4 5 -1
right_child=-2 -3 -4 -5 -6 -7
leaf_value=-0.06808441950710821 0.073158355497068256 0.022670540554283622 0.017013668947957406 -0.076168752722991506 -0.068491290179878941 -0.067626971054860915
leaf_weight=0.48783477582037515 2.095069445669651 3.073747918009758 1.0385153591632841 1.0014655850827692 1.1007866729050872 0.60736760310828686
leaf_count=16 30 16 3 10 30 30
internal_value=0 -0.0189625 -0.0491727 -0.0706697 -0.0681619 -0.0678307
internal_weight=0 7.30972 4.23597 3.19745 2.19599 1.0952
internal_count=135 105 89 86 76 46
is_linear=0
shrinkage=0.1


Tree=78
num_leaves=6
num_cat=0
split_feature=3 2 2 2 3
split_gain=2.10328 0.228237 0.000544087 3.47174e-05 2.36247e-05
threshold=0.45000000000000007 3.8000000000000003 1.4500000000000002 5.1500000000000012 1.5500000000000003
decision_type=2 2 2 2 2
left_child=2 -2 -1 4 -3
right_child=1 3 -4 -5 -6
leaf_value=0.068841796307917993 -0.0095172552944914612 -0.06837491979643251 0.07202259985274953 -0.067871422336497053 -0.069071220200304914
leaf_weight=0.99296701326966319 0.86606436967849765 1.1279591359198096 1.1730797998607156 0.73543390817940224 0.85786836408078659
leaf_count=23 7 33 23 30 19
internal_value=0 -0.0542286 0.0705644 -0.0684584 -0.0686757
internal_weight=0 3.58733 2.16605 2.72126 1.98583
internal_count=135 89 46 82 52
is_linear=0
shrinkage=0.1


Tree=79
num_leaves=5
num_cat=0
split_feature=0 2 0 2
split_gain=0.545716 0.759273 0.230685 0.149641
threshold=5.1500000000000012 4.8500000000000005 5.9500000000000011 5.0500000000000007
decision_type=2 2 2 2
left_child=-1 2 -2 -3
right_child=1 3 -4 -5
leaf_value=-0.04219556127119764 0.078665622808092472 0.0065673326277345531 0.027130960563076602 -0.031882662889603369
leaf_weight=2.0973052317276597 1.5211854800581934 1.8868501335382459 2.024724006652832 2.1835049577057362
leaf_count=38 30 9 20 38
internal_value=0 0.0154109 0.0492392 -0.0140588
internal_weight=0 7.61626 3.54591 4.07036
internal_count=135 97 50 47
is_linear=0
shrinkage=0.1


Tree=80
num_leaves=6
num_cat=0
split_feature=2 1 0 2 1
split_gain=1.24981 0.905255 0.212574 0.0543208 3.37362e-06
threshold=5.1500000000000012 2.8500000000000001 5.9500000000000011 4.0500000000000007 3.3500000000000001
decision_type=2 2 2 2 2
left_child=1 -1 3 4 -3
right_child=-2 2 -4 -5 -6
leaf_value=0.016587929062391076 0.072735206217767093 -0.06790817821411553 -0.031194428987813307 -0.10551474032207982 -0.067544552464052957
leaf_weight=3.5649425536394119 1.9232276827096937 0.48023733869195007 1.7005362678319214 0.60447049140930165 0.54435406811535358
leaf_count=34 30 18 17 6 30
internal_value=0 -0.018431 -0.0559251 -0.0817408 -0.067715
internal_weight=0 6.89454 3.3296 1.62906 1.02459
internal_count=135 105 71 54 48
is_linear=0
shrinkage=0.1


Tree=81
num_leaves=6
num_cat=0
split_feature=2 1 3 2 0
split_gain=1.90223 0.221235 0.00247816 0.000441107 9.76568e-06
threshold=1.8 3.1500000000000008 1.2500000000000002 1.4500000000000002 6.3500000000000005
decision_type=2 2 2 2 2
left_child=3 2 -2 -1 -4
right_child=1 -3 4 -5 -6
leaf_value=0.068608204300192752 -0.075428988814286571 -0.013203789131960374 -0.068377662250076049 0.071614247371309309 -0.067881838582377022
leaf_weight=0.89579832367598999 0.65492788702249605 0.95621224120259274 1.0858023632317779 1.0726984478533266 0.62640102580189694
leaf_count=23 11 18 33 23 27
internal_value=0 -0.0537988 -0.0701974 0.0702463 -0.0681963
internal_weight=0 3.32334 2.36713 1.9685 1.7122
internal_count=135 89 71 46 60
is_linear=0
shrinkage=0.1


Tree=82
num_leaves=6
num_cat=0
split_feature=1 3 2 1 2
split_gain=0.505755 0.509834 0.280146 0.13329 0.0641139
threshold=3.2500000000000004 1.6500000000000001 4.8500000000000005 2.8500000000000001 1.8
decision_type=2 2 2 2 2
left_child=1 2 3 -1 -2
right_child=4 -3 -4 -5 -6
leaf_value=0.071366254203028376 -0.071133140238013953 -0.0183143865794839 0.0033319188374050564 0.027979556650210319 -0.029288970129161637
leaf_weight=1.6790061444044115 0.75700177531689383 3.1253591720014811 1.8566194474697111 1.2244797646999357 0.70923346281051636
leaf_count=21 30 37 7 29 11
internal_value=0 0.013066 0.0336696 0.0530689 -0.0508927
internal_weight=0 7.88546 4.76011 2.90349 1.46624
internal_count=135 94 57 50 41
is_linear=0
shrinkage=0.1


Tree=83
num_leaves=6
num_cat=0
split_feature=2 1 0 3 1
split_gain=1.09691 0.776123 0.198166 0.0338551 2.30101e-06
threshold=5.1500000000000012 2.8500000000000001 5.9500000000000011 1.4500000000000002 3.3500000000000001
decision_type=2 2 2 2 2
left_child=1 -1 3 4 -3
right_child=-2 2 -4 -5 -6
leaf_value=0.015531579252377534 0.072195036299744206 -0.067753895010278592 -0.029127519490093852 -0.098707150005567845 -0.06744211351327542
leaf_weight=3.5023431908339262 1.7387889325618742 0.46819100156426452 1.6845795325934885 0.55466009862720966 0.47877080831676722
leaf_count=34 30 20 17 4 30
internal_value=0 -0.016959 -0.0526733 -0.0790878 -0.0675963
internal_weight=0 6.68854 3.1862 1.50162 0.946962
internal_count=135 105 71 54 50
is_linear=0
shrinkage=0.1


Tree=84
num_leaves=7
num_cat=0
split_feature=3 0 2 1 2 0
split_gain=1.73262 0.190277 0.000413437 2.88812e-05 5.561e-06 7.5083e-06
threshold=0.45000000000000007 5.1500000000000012 1.4500000000000002 3.1500000000000008 4.4500000000000011 6.3500000000000005
decision_type=2 2 2 2 2 2
left_child=2 -2 -1 4 -3 -6
right_child=1 3 -4 -5 5 -7
leaf_value=0.068441060076795901 -0.010652634106342873 -0.067680571327277755 0.071489979667992851 -0.068795482441004446 -0.06828705574287415 -0.067785292586182211
leaf_weight=0.81069439835846402 0.76850937306880984 0.46282523497939143 0.98528507351875305 0.57590957731008519 0.74660962633788563 0.4965773057192564
leaf_count=23 5 21 23 16 23 24
internal_value=0 -0.0536892 0.0701137 -0.0681832 -0.0679765 -0.0680866
internal_weight=0 3.05043 1.79598 2.28192 1.70601 1.24319
internal_count=135 89 46 84 68 47
is_linear=0
shrinkage=0.1


Tree=85
num_leaves=5
num_cat=0
split_feature=0 2 1 0
split_gain=0.448503 0.584672 0.213295 0.0471325
threshold=5.1500000000000012 4.7500000000000009 2.9500000000000006 5.8500000000000005
decision_type=2 2 2 2
left_child=-1 3 -3 -2
right_child=1 2 -4 -5
leaf_value=-0.040474006738310343 0.040758733096465223 -0.024239916632978881 0.017530759985335761 0.070466941370649697
leaf_weight=1.8768146540969608 0.93970342911779914 2.6033689565956593 2.3046791609376669 1.2370433397591112
leaf_count=38 28 22 29 18
internal_value=0 0.0145056 -0.0046256 0.0576419
internal_weight=0 7.08479 4.90805 2.17675
internal_count=135 97 51 46
is_linear=0
shrinkage=0.1


Tree=86
num_leaves=7
num_cat=0
split_feature=3 1 3 2 2 3
split_gain=1.01815 0.791383 0.358516 0.768088 0.0239849 1.93972e-05
threshold=1.8500000000000003 3.0500000000000003 1.6500000000000001 4.9500000000000011 4.7500000000000009 0.35000000000000003
decision_type=2 2 2 2 2 2
left_child=1 2 3 -1 5 -3
right_child=-2 4 -4 -5 -6 -7
leaf_value=-0.071282893611941942 0.070474835048846746 -0.067402656557001658 0.036230893552585595 0.032181436417641117 -0.092784441705892215 -0.068342560803519442
leaf_weight=1.4281003121286633 1.6867855954915283 0.50312271900475003 1.9542644172906873 1.4420190304517744 0.67580995708703995 0.38959234021604061
leaf_count=38 30 33 11 5 4 14
internal_value=0 -0.0168672 0.00319458 -0.0192999 -0.078572 -0.0678128
internal_weight=0 6.39291 4.82438 2.87012 1.56853 0.892715
internal_count=135 105 54 43 51 47
is_linear=0
shrinkage=0.1


Tree=87
num_leaves=6
num_cat=0
split_feature=3 2 2 2 3
split_gain=1.54926 0.194108 0.000305141 2.20114e-05 2.60428e-05
threshold=0.45000000000000007 3.4000000000000004 1.4500000000000002 5.1500000000000012 1.5500000000000003
decision_type=2 2 2 2 2
left_child=2 -2 -1 4 -3
right_child=1 3 -4 -5 -6
leaf_value=0.068243975310248534 -0.0075024590247926397 -0.067911011804655752 0.071002409542931536 -0.067520851048891148 -0.068723299020598247
leaf_weight=0.72752830572426297 0.70528320968151126 0.88677069731056712 0.89359920099377632 0.51509173028171051 0.71130291745066643
leaf_count=23 4 36 23 30 19
internal_value=0 -0.0529282 0.0697645 -0.0680893 -0.0682726
internal_weight=0 2.81845 1.62113 2.11317 1.59807
internal_count=135 89 46 85 55
is_linear=0
shrinkage=0.1


Tree=88
num_leaves=6
num_cat=0
split_feature=1 3 2 1 3
split_gain=0.418314 0.419782 0.225421 0.118398 0.0566058
threshold=3.2500000000000004 1.6500000000000001 4.8500000000000005 2.8500000000000001 0.45000000000000007
decision_type=2 2 2 2 2
left_child=1 2 3 -1 -2
right_child=4 -3 -4 -5 -6
leaf_value=0.07059867822411002 -0.070662653388866722 -0.016380825485361496 0.0054747282688594615 0.026137931399724153 -0.02846657209556271
leaf_weight=1.4412249326705935 0.6442619804292915 2.9883726537227631 1.7864469438791273 1.024876784533262 0.62763141095638275
leaf_count=21 30 37 7 29 11
internal_value=0 0.0123417 0.0325257 0.0521214 -0.0498405
internal_weight=0 7.24092 4.25255 2.4661 1.27189
internal_count=135 94 57 50 41
is_linear=0
shrinkage=0.1


Tree=89
num_leaves=8
num_cat=0
split_feature=2 3 2 2 2 3 0
split_gain=0.931584 0.64357 0.426683 0.00496418 4.45472e-05 5.4626e-06 1.00486e-06
threshold=5.1500000000000012 1.6500000000000001 4.9500000000000011 4.7500000000000009 4.4500000000000011 0.45000000000000007 4.9500000000000011
decision_type=2 2 2 2 2 2 2
left_child=1 2 3 4 5 6 -1
right_child=-2 -3 -4 -5 -6 -7 -8
leaf_value=-0.067487310661559149 0.07170826631547586 0.018667288400568791 0.0080183758165227118 -0.079052691109930295 -0.068682170846819532 -0.067783491979318156 -0.067239467731994768
leaf_weight=0.33028867933899231 1.508357925340533 2.8504636213183403 0.99990579485893238 0.51529471576213826 0.49841757863759983 0.59355133026838303 0.32412043772637844
leaf_count=19 30 16 3 3 12 25 27
internal_value=0 -0.0160432 -0.0463785 -0.0704279 -0.067883 -0.0675638 -0.0673646
internal_weight=0 6.11204 3.26158 2.26167 1.74638 1.24796 0.654409
internal_count=135 105 89 86 83 71 46
is_linear=0
shrinkage=0.1


Tree=90
num_leaves=6
num_cat=0
split_feature=2 1 0 2 0
split_gain=1.41151 0.17092 0.00173708 0.000295589 2.79648e-06
threshold=1.8 3.1500000000000008 5.5500000000000007 1.4500000000000002 6.3500000000000005
decision_type=2 2 2 2 2
left_child=3 2 -2 -1 -4
right_child=1 -3 4 -5 -6
leaf_value=0.068107677787289017 -0.074578883830400844 -0.013416114887527811 -0.067873587865312709 0.070952557430352378 -0.067563294836993068
leaf_weight=0.65768217295408227 0.52979947067797217 0.7674671709537505 0.82368853222578742 0.82132473774254322 0.4486487191170454
leaf_count=23 9 18 35 23 27
internal_value=0 -0.052937 -0.0697676 0.0696875 -0.0677642
internal_weight=0 2.5696 1.80214 1.47901 1.27234
internal_count=135 89 71 46 62
is_linear=0
shrinkage=0.1


Tree=91
num_leaves=5
num_cat=0
split_feature=0 3 1 2
split_gain=0.439821 0.469972 0.556629 0.0733314
threshold=6.5500000000000007 1.6500000000000001 3.0500000000000003 1.6500000000000001
decision_type=2 2 2 2
left_child=1 2 -1 -4
right_child=-2 -3 3 -5
leaf_value=0.035380905988450277 0.055592524762621068 -0.04297894554961916 -0.068701375186963537 -0.020794857534739284
leaf_weight=3.0707333572208881 1.3327807756140826 2.3832607707008719 0.59577389061450936 0.68909259140491486
leaf_count=40 27 24 36 8
internal_value=0 -0.0072779 0.0122567 -0.0430084
internal_weight=0 6.73886 4.3556 1.28487
internal_count=135 108 84 44
is_linear=0
shrinkage=0.1


Tree=92
num_leaves=7
num_cat=0
split_feature=3 1 3 2 2 2
split_gain=0.849239 0.699939 0.258946 0.617467 0.0186604 1.49625e-05
threshold=1.8500000000000003 3.0500000000000003 1.6500000000000001 4.9500000000000011 4.7500000000000009 1.6500000000000001
decision_type=2 2 2 2 2 2
left_child=1 2 3 -1 5 -3
right_child=-2 4 -4 -5 -6 -7
leaf_value=-0.070922271437960968 0.069971907080998097 -0.067218898698885851 0.031831285147257908 0.027702719283100752 -0.091087371000416542 -0.068154105990350447
leaf_weight=1.1675655841827395 1.4336382057517765 0.41432284656912066 1.8471362702548502 1.3911966830492017 0.65018618479371071 0.29139237478375435
leaf_count=38 30 36 11 5 4 11
internal_value=0 -0.0160372 0.00329791 -0.0173 -0.0788654 -0.067605
internal_weight=0 5.7618 4.4059 2.55876 1.3559 0.705715
internal_count=135 105 54 43 51 47
is_linear=0
shrinkage=0.1


Tree=93
num_leaves=7
num_cat=0
split_feature=3 1 0 2 3 0
split_gain=1.25004 0.275388 0.00127823 0.000215714 5.63184e-06 9.42678e-06
threshold=0.45000000000000007 3.2500000000000004 5.5500000000000007 1.4500000000000002 1.4500000000000002 6.3500000000000005
decision_type=2 2 2 2 2 2
left_child=3 2 -2 -1 -4 -6
right_child=1 -3 4 -5 5 -7
leaf_value=0.067966085443102939 -0.073812107967014831 0.013679581359469268 -0.067541419056756244 0.070535006793091187 -0.068277927108422662 -0.067661728643503991
leaf_weight=0.58865650184452556 0.48674273211509023 0.50643523968756188 0.39764208532869794 0.73500969633460045 0.52510006912052631 0.47092249058187008
leaf_count=23 9 11 22 23 19 28
internal_value=0 -0.0517727 -0.0694004 0.0693926 -0.0678596 -0.0679866
internal_weight=0 2.38684 1.88041 1.32367 1.39366 0.996023
internal_count=135 89 78 46 69 47
is_linear=0
shrinkage=0.1


Tree=94
num_leaves=5
num_cat=0
split_feature=0 3 1 2
split_gain=0.397294 0.398837 0.465992 0.130434
threshold=6.5500000000000007 1.6500000000000001 3.0500000000000003 1.8
decision_type=2 2 2 2
left_child=1 2 -1 -4
right_child=-2 -3 3 -5
leaf_value=0.032875067419290131 0.053560101054165893 -0.040866987471218259 -0.069669423737335964 -0.0028331301891846346
leaf_weight=2.9184222910553217 1.2925159055739639 2.2715773321688175 0.68705387972295262 0.50779592990875244
leaf_count=40 27 24 39 5
internal_value=0 -0.00723502 0.0113384 -0.0412649
internal_weight=0 6.38485 4.11327 1.19485
internal_count=135 108 84 44
is_linear=0
shrinkage=0.1


Tree=95
num_leaves=6
num_cat=0
split_feature=2 1 0 1 0
split_gain=0.818676 0.633659 0.498361 0.947842 0.0999942
threshold=5.1500000000000012 2.8500000000000001 6.2500000000000009 3.0500000000000003 5.8500000000000005
decision_type=2 2 2 2 2
left_child=1 -1 3 -3 -5
right_child=-2 2 -4 4 -6
leaf_value=0.015758405050741064 0.071525671576888689 0.045192466593812347 -0.12088469349393785 -0.067213202495497101 -0.13576211690802961
leaf_weight=2.9495544731616974 1.3346074633300302 0.94487296603620075 0.74873782135546196 0.44161137007176876 0.41071299090981483
leaf_count=34 30 17 11 41 2
internal_value=0 -0.0157895 -0.0523388 -0.0237816 -0.100245
internal_weight=0 5.49549 2.54594 1.7972 0.852324
internal_count=135 105 71 60 43
is_linear=0
shrinkage=0.1


Tree=96
num_leaves=6
num_cat=0
split_feature=3 1 0 2 1
split_gain=1.13288 0.247128 0.000936131 0.000175686 6.67444e-06
threshold=0.45000000000000007 3.2500000000000004 5.5500000000000007 1.4500000000000002 2.9500000000000006
decision_type=2 2 2 2 2
left_child=3 2 -2 -1 -4
right_child=1 -3 4 -5 -6
leaf_value=0.067876020946047819 -0.073122240237760344 0.011677124898216314 -0.06759118311373026 0.070310111869786598 -0.068048795572062323
leaf_weight=0.53588941227644704 0.44741608668118749 0.48390567116439331 0.67369435774162389 0.66386751085519791 0.60491473879665136
leaf_count=23 9 11 39 23 30
internal_value=0 -0.051479 -0.0691853 0.0692229 -0.0678077
internal_weight=0 2.20993 1.72603 1.19976 1.27861
internal_count=135 89 78 46 69
is_linear=0
shrinkage=0.1


Tree=97
num_leaves=6
num_cat=0
split_feature=0 3 1 2 2
split_gain=0.328998 0.368424 0.420414 0.477872 0.000596042
threshold=6.5500000000000007 1.6500000000000001 2.7500000000000004 3.4000000000000004 1.5500000000000003
decision_type=2 2 2 2 2
left_child=1 2 -1 4 -4
right_child=-2 -3 3 -5 -6
leaf_value=0.045985338353092674 0.049152620964624617 -0.039622388757655419 -0.067278508239992221 0.026015532568887192 -0.072284529100555744
leaf_weight=1.8653002120554449 1.2717200713232157 2.1895929155871272 0.40734224719926748 1.0919929258525369 0.57159072812646627
leaf_count=19 27 24 35 18 12
internal_value=0 -0.00674101 0.0115498 -0.0194665 -0.0702015
internal_weight=0 6.12582 3.93623 2.07093 0.978933
internal_count=135 108 84 65 47
is_linear=0
shrinkage=0.1


Tree=98
num_leaves=8
num_cat=0
split_feature=2 1 3 0 3 3 0
split_gain=0.761772 0.596351 0.42408 0.539878 0.421067 7.14983e-06 3.35223e-07
threshold=5.1500000000000012 2.5500000000000003 1.6500000000000001 6.2500000000000009 1.4500000000000002 0.45000000000000007 4.9500000000000011
decision_type=2 2 2 2 2 2 2
left_child=1 -1 3 4 5 6 -3
right_child=-2 2 -4 -5 -6 -7 -8
leaf_value=0.04510809393365707 0.071400263007246279 -0.067236091527147032 -0.0030059004418216211 0.0011025053117613589 -0.19313298758528297 -0.067738243861188263 -0.067060606294925426
leaf_weight=1.2595055215060709 1.2595071941614149 0.21571576502174117 2.1482153087854385 0.71994714811444271 0.39415176399052143 0.38701054267585278 0.21974617941305041
leaf_count=14 30 18 13 11 4 18 27
internal_value=0 -0.0150495 -0.0335985 -0.0675346 -0.108151 -0.0674255 -0.0671475
internal_weight=0 5.34429 4.08479 1.93657 1.21662 0.822472 0.435462
internal_count=135 105 91 78 67 63 45
is_linear=0
shrinkage=0.1


Tree=99
num_leaves=7
num_cat=0
split_feature=2 1 0 3 3 0
split_gain=1.02116 0.209781 0.000660744 0.000289445 6.08058e-06 9.26108e-06
threshold=1.8 3.2500000000000004 5.5500000000000007 0.25000000000000006 1.4500000000000002 6.2500000000000009
decision_type=2 2 2 2 2 2
left_child=3 2 -2 -1 -4 -6
right_child=1 -3 4 -5 5 -7
leaf_value=0.067634325891686511 -0.072421998910049967 0.0085295185391552081 -0.067371859726704106 0.070960518320294028 -0.068272340789510194 -0.067601258098771919
leaf_weight=0.61215594597160838 0.40624794643372331 0.44910792633891095 0.32360287010669686 0.45687951426953077 0.35317005217075348 0.49228392820805311
leaf_count=32 9 11 22 14 14 33
internal_value=0 -0.0517598 -0.0689478 0.0690559 -0.0677405 -0.0678816
internal_weight=0 2.02441 1.5753 1.06904 1.16906 0.845454
internal_count=135 89 78 46 69 47
is_linear=0
shrinkage=0.1


Tree=100
num_leaves=7
num_cat=0
split_feature=0 3 1 2 2 2
split_gain=0.313963 0.312373 0.352222 0.406713 0.000399908 3.32475e-05
threshold=6.5500000000000007 1.6500000000000001 2.7500000000000004 3.4000000000000004 1.6500000000000001 1.4500000000000002
decision_type=2 2 2 2 2 2
left_child=1 2 -1 4 5 -4
right_child=-2 -3 3 -5 -6 -7
leaf_value=0.041715179680910729 0.048270971060463297 -0.037643880430340823 -0.067253188394804694 0.022760492466839317 -0.072444579273338347 -0.068860796717506764
leaf_weight=1.8343655876815321 1.2497136276215313 2.1165056172758341 0.2456379341892897 1.035363210365176 0.35821986850351095 0.27010948909446597
leaf_count=19 27 24 22 18 5 20
internal_value=0 -0.00693802 0.0104216 -0.0196433 -0.0698779 -0.0680951
internal_weight=0 5.8602 3.7437 1.90933 0.873967 0.515747
internal_count=135 108 84 65 47 42
is_linear=0
shrinkage=0.1


Tree=101
num_leaves=7
num_cat=0
split_feature=2 1 0 1 2 2
split_gain=0.707701 0.57479 0.387266 0.872079 0.102369 4.54919e-06
threshold=5.1500000000000012 2.8500000000000001 6.4500000000000011 3.0500000000000003 4.7500000000000009 1.5500000000000003
decision_type=2 2 2 2 2 2
left_child=1 -1 3 -3 5 -5
right_child=-2 2 -4 4 -6 -7
leaf_value=0.016060295096708373 0.071305630873014378 0.043470356841291635 -0.11573594631099338 -0.067015513863041762 -0.13862080025595674 -0.067661815139234874
leaf_weight=2.8462536428123713 1.1907414700835941 0.88084853533655427 0.65977104287594546 0.22329709399491549 0.37445440888404846 0.21260205842554569
leaf_count=34 30 18 8 30 1 14
internal_value=0 -0.014164 -0.0507556 -0.0254055 -0.100273 -0.0673307
internal_weight=0 5.19723 2.35097 1.6912 0.810354 0.435899
internal_count=135 105 71 63 45 44
is_linear=0
shrinkage=0.1


Tree=102
num_leaves=6
num_cat=0
split_feature=3 1 0 2 1
split_gain=0.914571 0.187536 0.000466192 9.6563e-05 7.10505e-06
threshold=0.45000000000000007 3.2500000000000004 5.5500000000000007 1.4500000000000002 2.9500000000000006
decision_type=2 2 2 2 2
left_child=3 2 -2 -1 -4
right_child=1 -3 4 -5 -6
leaf_value=0.067648037488046014 -0.071820726688786807 0.0068557337671805762 -0.067461066928028876 0.069673377793500343 -0.06797560691123021
leaf_weight=0.42506893165409598 0.3704270627349614 0.42420578654855479 0.5607560467906294 0.5275798961520195 0.51468463474884629
leaf_count=23 9 11 39 23 30
internal_value=0 -0.0516083 -0.0687612 0.0687697 -0.0677073
internal_weight=0 1.87007 1.44587 0.952649 1.07544
internal_count=135 89 78 46 69
is_linear=0
shrinkage=0.1


Tree=103
num_leaves=7
num_cat=0
split_feature=0 3 1 2 2 2
split_gain=0.257411 0.29311 0.304274 0.363898 0.000297794 2.25367e-05
threshold=6.5500000000000007 1.6500000000000001 2.7500000000000004 3.4000000000000004 1.6500000000000001 1.4500000000000002
decision_type=2 2 2 2 2 2
left_child=1 2 -1 4 5 -4
right_child=-2 -3 3 -5 -6 -7
leaf_value=0.040056964166515469 0.043972804680518597 -0.036650934971457827 -0.06717930246050445 0.021307489881362208 -0.071878060293116067 -0.068592511196977318
leaf_weight=1.7839545886963608 1.2352512041106818 2.0440122447907925 0.2150924247689544 1.0111944414675234 0.32799966121092439 0.23738012230023742
leaf_count=19 27 24 22 18 5 20
internal_value=0 -0.00644479 0.0108226 -0.0182859 -0.0695838 -0.0679207
internal_weight=0 5.61963 3.57562 1.79167 0.780472 0.452473
internal_count=135 108 84 65 47 42
is_linear=0
shrinkage=0.1


Tree=104
num_leaves=8
num_cat=0
split_feature=2 1 3 0 2 3 0
split_gain=0.658364 0.525063 0.32718 0.531709 0.360517 6.53538e-06 2.02262e-07
threshold=5.1500000000000012 2.5500000000000003 1.6500000000000001 6.2500000000000009 5.0500000000000007 0.45000000000000007 4.9500000000000011
decision_type=2 2 2 2 2 2 2
left_child=1 -1 3 4 5 6 -3
right_child=-2 2 -4 -5 -6 -7 -8
leaf_value=0.044284091535028991 0.071209505793267236 -0.067131057667775537 -0.0045192697896836408 0.0070017037942748765 -0.19128287206928368 -0.067645361946524832 -0.066977535718306225
leaf_weight=1.2077381620183585 1.1272609923034904 0.17300661467015765 2.0968651659786701 0.67404848150908936 0.34058251976966858 0.41294457204639912 0.17028242815285921
leaf_count=14 30 18 13 11 1 21 27
internal_value=0 -0.0132744 -0.0312476 -0.0628965 -0.105852 -0.0673773 -0.0670549
internal_weight=0 5.07547 3.86773 1.77086 1.09682 0.756234 0.343289
internal_count=135 105 91 78 67 66 45
is_linear=0
shrinkage=0.1


Tree=105
num_leaves=7
num_cat=0
split_feature=2 1 0 3 0 1
split_gain=0.827261 0.159175 0.000331919 0.000160947 6.53863e-06 2.45727e-07
threshold=1.8 3.2500000000000004 5.5500000000000007 0.25000000000000006 6.0500000000000007 2.9500000000000006
decision_type=2 2 2 2 2 2
left_child=3 2 -2 -1 -4 -6
right_child=1 -3 4 -5 5 -7
leaf_value=0.067421235436245217 -0.071289591851816242 0.0038472716547868382 -0.067990538663973227 0.070193011226133167 -0.067390086501630128 -0.067516070572332665
leaf_weight=0.47523910738527808 0.33692543860524871 0.39366234745830286 0.3649331871420145 0.37463552784174681 0.28988806763663888 0.33227197732776403
leaf_count=32 9 11 21 14 23 25
internal_value=0 -0.0519806 -0.0685795 0.0686431 -0.0676545 -0.0674574
internal_weight=0 1.71768 1.32402 0.849875 0.987093 0.62216
internal_count=135 89 78 46 69 48
is_linear=0
shrinkage=0.1


Tree=106
num_leaves=5
num_cat=0
split_feature=0 2 0 0
split_gain=0.247923 0.26255 0.435501 0.374169
threshold=6.5500000000000007 4.8500000000000005 5.1500000000000012 5.9500000000000011
decision_type=2 2 2 2
left_child=1 2 -1 -4
right_child=-2 -3 3 -5
leaf_value=-0.036789489075632086 0.043324209268859118 -0.031929903433044471 0.088854444766061497 0.00081254779147050074
leaf_weight=1.13060799241066 1.2167045306414364 2.3332474259659648 0.8930442421697079 1.0505775865167377
leaf_count=38 27 25 30 15
internal_value=0 -0.00663715 0.0125593 0.0412655
internal_weight=0 5.40748 3.07423 1.94362
internal_count=135 108 83 45
is_linear=0
shrinkage=0.1


Tree=107
num_leaves=5
num_cat=0
split_feature=2 1 0 1
split_gain=0.613143 0.527025 0.287622 0.825065
threshold=5.1500000000000012 2.8500000000000001 6.1500000000000012 3.0500000000000003
decision_type=2 2 2 2
left_child=1 -1 3 -3
right_child=-2 2 -4 -5
leaf_value=0.016789710921808518 0.071108451020201122 0.046136943631342672 -0.09881480974191445 -0.10502772307395308
leaf_weight=2.7486843951046467 1.0671051470562813 0.79182774480432294 0.75624572578817595 0.6637153085321188
leaf_count=34 30 16 12 43
internal_value=0 -0.0124493 -0.048786 -0.0227929
internal_weight=0 4.96047 2.21179 1.45554
internal_count=135 105 71 59
is_linear=0
shrinkage=0.1


Tree=108
num_leaves=7
num_cat=0
split_feature=3 1 0 2 1 2
split_gain=0.752774 0.146999 0.000307017 5.80927e-05 1.40713e-05 4.89263e-07
threshold=0.45000000000000007 3.2500000000000004 5.5500000000000007 1.4500000000000002 3.0500000000000003 4.8500000000000005
decision_type=2 2 2 2 2 2
left_child=3 2 -2 -1 5 -4
right_child=1 -3 4 -5 -6 -7
leaf_value=0.067475994938042169 -0.071218717857150643 0.0028018626114234171 -0.067259709847817942 0.069220801126424661 -0.068232576448222296 -0.067434870694206311
leaf_weight=0.3427612250670794 0.31795877963304497 0.37800404429435719 0.28314541932195425 0.43047452997416258 0.25716154696419835 0.36507386807352304
leaf_count=23 9 11 24 23 13 32
internal_value=0 -0.0517036 -0.0685455 0.0684474 -0.0676067 -0.0673584
internal_weight=0 1.60134 1.22334 0.773236 0.905381 0.648219
internal_count=135 89 78 46 69 56
is_linear=0
shrinkage=0.1


Tree=109
num_leaves=7
num_cat=0
split_feature=0 3 1 2 2 1
split_gain=0.203442 0.267068 0.256219 0.293085 0.000172385 1.65358e-05
threshold=6.5500000000000007 1.6500000000000001 2.7500000000000004 3.4000000000000004 1.6500000000000001 3.4500000000000006
decision_type=2 2 2 2 2 2
left_child=1 2 -1 4 5 -4
right_child=-2 -3 3 -5 -6 -7
leaf_value=0.038032586635238702 0.039569982094037608 -0.035585272984536086 -0.067097364871994275 0.018200533164018703 -0.071009227622799223 -0.068434313908700292
leaf_weight=1.7164818998426201 1.2050531180575488 1.9276030613109467 0.19649112364277221 0.93441784381866455 0.28114445228129625 0.17481980891898274
leaf_count=19 27 24 23 18 5 19
internal_value=0 -0.00600592 0.0112545 -0.0177107 -0.0691412 -0.0677268
internal_weight=0 5.23096 3.30336 1.58687 0.652455 0.371311
internal_count=135 108 84 65 47 42
is_linear=0
shrinkage=0.1


Tree=110
num_leaves=6
num_cat=0
split_feature=3 1 0 1 1
split_gain=0.590142 0.43719 0.421307 0.393688 0.605851
threshold=1.8500000000000003 2.6500000000000008 6.0500000000000007 2.9500000000000006 3.0500000000000003
decision_type=2 2 2 2 2
left_child=1 -1 3 -3 -5
right_child=-2 2 -4 4 -6
leaf_value=0.038075678323436293 0.069463533413866782 -0.14583666505011347 -0.0001561984748100397 0.051096630370761502 -0.10081396418982354
leaf_weight=1.2513111867010591 1.069746585562825 0.47295124176889691 1.9787029698491094 0.45606854371726491 0.61868083430454135
leaf_count=17 30 9 26 10 43
internal_value=0 -0.0127061 -0.0307256 -0.0698079 -0.0363509
internal_weight=0 4.77771 3.5264 1.5477 1.07475
internal_count=135 105 88 62 53
is_linear=0
shrinkage=0.1


Tree=111
num_leaves=7
num_cat=0
split_feature=2 1 3 3 0 1
split_gain=0.681049 0.124148 0.000200864 9.50918e-05 8.0188e-06 1.94897e-07
threshold=1.8 3.2500000000000004 1.2500000000000002 0.25000000000000006 6.0500000000000007 2.9500000000000006
decision_type=2 2 2 2 2 2
left_child=3 2 -2 -1 -4 -6
right_child=1 -3 4 -5 5 -7
leaf_value=0.067275485162668472 -0.07067625816348265 -0.00021759498094154554 -0.067995521293206018 0.069634675366399681 -0.06729104986315948 -0.06741547144308084
leaf_weight=0.37699316674843464 0.28667791374027707 0.35085220076143731 0.32433191360905766 0.31245238985866308 0.23035690817050636 0.27762662246823311
leaf_count=32 11 11 20 14 22 25
internal_value=0 -0.0521198 -0.0683934 0.0683447 -0.0676071 -0.067359
internal_weight=0 1.46985 1.11899 0.689446 0.832315 0.507984
internal_count=135 89 78 46 67 47
is_linear=0
shrinkage=0.1


Tree=112
num_leaves=6
num_cat=0
split_feature=0 3 1 2 2
split_gain=0.190979 0.230705 0.210259 0.256387 0.00011908
threshold=6.5500000000000007 1.6500000000000001 2.7500000000000004 3.4000000000000004 1.6500000000000001
decision_type=2 2 2 2 2
left_child=1 2 -1 4 -4
right_child=-2 -3 3 -5 -6
leaf_value=0.034305758412339071 0.038382460804804203 -0.034233947077406894 -0.0676745636172673 0.016039647873627421 -0.070556999059083345
leaf_weight=1.6931379660964014 1.1930781966075299 1.8470741496421395 0.32963635772466637 0.90808665938675404 0.25357930874451995
leaf_count=19 27 24 42 18 5
internal_value=0 -0.00611797 0.0101902 -0.0171893 -0.0689278
internal_weight=0 5.03151 3.18444 1.4913 0.583216
internal_count=135 108 84 65 47
is_linear=0
shrinkage=0.1


Tree=113
num_leaves=7
num_cat=0
split_feature=2 1 0 0 2 3
split_gain=0.552032 0.435852 0.427335 0.619866 0.00941281 6.53893e-07
threshold=5.1500000000000012 2.8500000000000001 6.5500000000000007 5.9500000000000011 4.7500000000000009 0.35000000000000003
decision_type=2 2 2 2 2 2
left_child=1 -1 3 4 5 -3
right_child=-2 2 -4 -5 -6 -7
leaf_value=0.015255298456824268 0.071027787310871573 -0.066950396798761649 -0.1185339217622023 0.049663192624686117 -0.089498427551978288 -0.067243426209441959
leaf_weight=2.6396095752716064 0.97502859216183413 0.20308619434945308 0.58391862455755461 0.712111447006464 0.44030477851629257 0.12183938687667251
leaf_count=34 30 39 7 10 2 13
internal_value=0 -0.0116524 -0.04611 -0.0174844 -0.0799709 -0.0670603
internal_weight=0 4.70087 2.06126 1.47734 0.76523 0.324926
internal_count=135 105 71 64 54 52
is_linear=0
shrinkage=0.1


Tree=114
num_leaves=7
num_cat=0
split_feature=3 1 3 2 1 3
split_gain=0.60825 0.111462 0.00014369 3.21051e-05 1.18248e-05 6.35049e-07
threshold=0.45000000000000007 3.2500000000000004 1.2500000000000002 1.4500000000000002 3.0500000000000003 1.5500000000000003
decision_type=2 2 2 2 2 2
left_child=3 2 -2 -1 5 -4
right_child=1 -3 4 -5 -6 -7
leaf_value=0.067335902422438795 -0.070286786039963259 -0.0016020972264264338 -0.067198152405201758 0.068796577015675167 -0.06818706634319581 -0.067415971819923523
leaf_weight=0.26969523448497068 0.26142920786514856 0.33168787416070689 0.23582932353019714 0.34040341526269913 0.22231642110273242 0.30952365812845528
leaf_count=23 11 11 23 23 13 31
internal_value=0 -0.0520138 -0.0682619 0.0681509 -0.0675724 -0.0673218
internal_weight=0 1.36079 1.0291 0.610099 0.767669 0.545353
internal_count=135 89 78 46 67 54
is_linear=0
shrinkage=0.1


Tree=115
num_leaves=6
num_cat=0
split_feature=2 0 0 0 1
split_gain=0.168404 0.868264 0.404575 0.456981 0.117351
threshold=5.0500000000000007 6.2500000000000009 5.9500000000000011 5.4500000000000011 3.0500000000000003
decision_type=2 2 2 2 2
left_child=1 2 3 4 -1
right_child=-2 -3 -4 -5 -6
leaf_value=5.1957157655659765e-05 -0.02449680089510415 0.083715247538763776 -0.058070251157248266 0.070286745879625398 -0.069047798415126066
leaf_weight=0.5564481792971494 1.6877134707756338 1.2338508004322646 1.2969964388757942 0.8209735881537199 0.44019849179312587
leaf_count=12 38 15 12 22 36
internal_value=0 0.0127201 -0.0154045 0.0150404 -0.030468
internal_weight=0 4.34847 3.11462 1.81762 0.996647
internal_count=135 97 82 70 48
is_linear=0
shrinkage=0.1


Tree=116
num_leaves=7
num_cat=0
split_feature=2 1 0 0 2 3
split_gain=0.515601 0.393429 0.327637 0.551362 0.00624834 5.33987e-07
threshold=5.1500000000000012 2.8500000000000001 6.5500000000000007 5.9500000000000011 4.7500000000000009 0.35000000000000003
decision_type=2 2 2 2 2 2
left_child=1 -1 3 4 5 -3
right_child=-2 2 -4 -5 -6 -7
leaf_value=0.014813038819017183 0.070917803864018247 -0.06691710319455435 -0.1063825548026173 0.046399405652448732 -0.0859392994528487 -0.06719665450939373
leaf_weight=2.5938867265358567 0.92423450294882048 0.17846853239461802 0.59506543772295106 0.68623596150428057 0.44089536368846893 0.11072029802016914
leaf_count=34 30 39 7 10 2 13
internal_value=0 -0.0109251 -0.0441171 -0.0179563 -0.0784469 -0.0670241
internal_weight=0 4.60527 2.01139 1.41632 0.730084 0.289189
internal_count=135 105 71 64 54 52
is_linear=0
shrinkage=0.1


Tree=117
num_leaves=7
num_cat=0
split_feature=2 1 0 3 1 2
split_gain=0.556247 0.0948212 0.000127758 5.38547e-05 1.06215e-05 4.40331e-07
threshold=1.8 3.2500000000000004 5.5500000000000007 0.25000000000000006 3.0500000000000003 4.9500000000000011
decision_type=2 2 2 2 2 2
left_child=3 2 -2 -1 5 -4
right_child=1 -3 4 -5 -6 -7
leaf_value=0.067142648496360841 -0.070130120773940471 -0.0043472575027690844 -0.067146221386205865 0.069123769048938452 -0.068094588276975773 -0.067334916412895282
leaf_weight=0.29372336808592092 0.24661506991833426 0.30879609379917383 0.26517104497179389 0.25751492427662015 0.20174625120125711 0.23174961237236857
leaf_count=32 9 11 28 14 13 28
internal_value=0 -0.0524572 -0.0681734 0.0680681 -0.0674827 -0.0672342
internal_weight=0 1.25408 0.945282 0.551238 0.698667 0.496921
internal_count=135 89 78 46 69 56
is_linear=0
shrinkage=0.1


Tree=118
num_leaves=6
num_cat=0
split_feature=2 0 0 0 1
split_gain=0.131995 0.734242 0.334775 0.383102 0.105475
threshold=5.0500000000000007 6.2500000000000009 5.9500000000000011 5.4500000000000011 3.0500000000000003
decision_type=2 2 2 2 2
left_child=1 2 3 4 -1
right_child=-2 -3 -4 -5 -6
leaf_value=-0.00081349116162539108 -0.02195380125702584 0.077554907383573221 -0.053699604340990616 0.06480704455045537 -0.068846047600282234
leaf_weight=0.53787502599880122 1.6259347116574643 1.2046254975721238 1.2761203777045009 0.79565919609740376 0.39541447418741882
leaf_count=12 38 15 12 22 36
internal_value=0 0.0115926 -0.0148493 0.0138258 -0.0296374
internal_weight=0 4.20969 3.00507 1.72895 0.93329
internal_count=135 97 82 70 48
is_linear=0
shrinkage=0.1


Tree=119
num_leaves=6
num_cat=0
split_feature=3 1 0 1 1
split_gain=0.493119 0.369897 0.385137 0.352792 0.456103
threshold=1.8500000000000003 2.6500000000000008 6.0500000000000007 2.8500000000000001 3.0500000000000003
decision_type=2 2 2 2 2
left_child=1 -1 3 -3 -5
right_child=-2 2 -4 4 -6
leaf_value=0.036728516959445179 0.069472980585630714 -0.14355791321269087 0.0011516693513034608 0.043226580834731895 -0.096246363305669894
leaf_weight=1.1896706437692044 0.91971085127443064 0.43077031895518325 1.8685563765466211 0.4209513533860445 0.52926687058061361
leaf_count=17 30 6 26 13 43
internal_value=0 -0.0109788 -0.0284447 -0.0684902 -0.0344592
internal_weight=0 4.43922 3.24954 1.38099 0.950218
internal_count=135 105 88 62 56
is_linear=0
shrinkage=0.1


Tree=120
num_leaves=7
num_cat=0
split_feature=3 1 0 2 1 2
split_gain=0.502261 0.0845865 0.000104375 1.76571e-05 8.12111e-06 4.66172e-07
threshold=0.45000000000000007 3.2500000000000004 5.5500000000000007 1.4500000000000002 3.0500000000000003 4.9500000000000011
decision_type=2 2 2 2 2 2
left_child=3 2 -2 -1 5 -4
right_child=1 -3 4 -5 -6 -7
leaf_value=0.067245767733644587 -0.069920329252833743 -0.0058949248181789579 -0.06711280801543372 0.068446301424346323 -0.067998765834000177 -0.067315493896057704
leaf_weight=0.22197824670001876 0.2293184110894797 0.29247459676116705 0.24326092703267932 0.27339759608730674 0.1811876785941422 0.21268772217445076
leaf_count=23 9 11 28 23 13 28
internal_value=0 -0.0523947 -0.0680909 0.0679083 -0.0674324 -0.0672074
internal_weight=0 1.15893 0.866455 0.495376 0.637136 0.455949
internal_count=135 89 78 46 69 56
is_linear=0
shrinkage=0.1


Tree=121
num_leaves=5
num_cat=0
split_feature=2 0 0 0
split_gain=0.123234 0.659362 0.281314 0.32297
threshold=5.0500000000000007 6.2500000000000009 5.9500000000000011 5.2500000000000009
decision_type=2 2 2 2
left_child=1 2 3 -1
right_child=-2 -3 -4 -5
leaf_value=-0.03102820730076002 -0.021629669525185635 0.074383833849324607 -0.049900220204635727 0.057838951264613685
leaf_weight=0.82562567130662523 1.5733340675942598 1.1783308768644927 1.2582774348556993 0.81035467772744596
leaf_count=42 38 15 12 28
internal_value=0 0.0113227 -0.0143512 0.0129906
internal_weight=0 4.07259 2.89426 1.63598
internal_count=135 97 82 70
is_linear=0
shrinkage=0.1


Tree=122
num_leaves=6
num_cat=0
split_feature=3 1 0 1 1
split_gain=0.452063 0.32084 0.355596 0.310845 0.395877
threshold=1.8500000000000003 2.6500000000000008 6.0500000000000007 2.8500000000000001 3.0500000000000003
decision_type=2 2 2 2 2
left_child=1 -1 3 -3 -5
right_child=-2 2 -4 4 -6
leaf_value=0.034493677189351729 0.069311732090737793 -0.13683404936962559 0.001583675477789916 0.04086203661643175 -0.092893362218128786
leaf_weight=1.1711696013808248 0.85573242139071215 0.42489872314035915 1.8445129049941895 0.4009247818030417 0.49383337958715856
leaf_count=17 30 6 26 13 43
internal_value=0 -0.0102213 -0.0267719 -0.066405 -0.03296
internal_weight=0 4.33534 3.16417 1.31966 0.894758
internal_count=135 105 88 62 56
is_linear=0
shrinkage=0.1


Tree=123
num_leaves=7
num_cat=0
split_feature=2 1 0 3 0 0
split_gain=0.465752 0.0750875 9.43211e-05 3.2567e-05 4.77362e-06 5.03895e-08
threshold=1.8 3.2500000000000004 5.5500000000000007 0.25000000000000006 6.0500000000000007 6.3500000000000005
decision_type=2 2 2 2 2 2
left_child=3 2 -2 -1 -4 -6
right_child=1 -3 4 -5 5 -7
leaf_value=0.067072111231885154 -0.069828718379650392 -0.0076285186616484608 -0.067747566424007255 0.068760234417458904 -0.067202996481868296 -0.067127112067476263
leaf_weight=0.23950534639880072 0.21741679683327653 0.27687049377709627 0.22580561647191644 0.21857069060206413 0.15421900036744773 0.20228248066268861
leaf_count=32 9 11 21 14 15 33
internal_value=0 -0.0525123 -0.0680514 0.0678776 -0.0673878 -0.0671599
internal_weight=0 1.07659 0.799724 0.458076 0.582307 0.356501
internal_count=135 89 78 46 69 48
is_linear=0
shrinkage=0.1


Tree=124
num_leaves=7
num_cat=0
split_feature=0 3 2 2 1 2
split_gain=0.123315 0.249519 0.205212 0.322687 0.191026 3.10077e-05
threshold=6.5500000000000007 1.6500000000000001 4.9500000000000011 3.4000000000000004 3.0500000000000003 1.6500000000000001
decision_type=2 2 2 2 2 2
left_child=1 2 3 4 -1 -6
right_child=-2 -3 -4 -5 5 -7
leaf_value=0.042583312944093787 0.032791274771876051 -0.03627058408425779 -0.019532682334287378 0.070650078984490827 -0.067492898769421036 -0.069352487001672666
leaf_weight=0.27285632956773076 1.0528945839032529 1.637476628180593 1.1476993411779401 1.0099110845476387 0.1765462753828615 0.18221454811282456
leaf_count=9 27 24 4 30 36 5
internal_value=0 -0.00528454 0.0129065 0.0355868 -0.0204768 -0.0684374
internal_weight=0 4.4267 2.78923 1.64153 0.631617 0.358761
internal_count=135 108 84 80 50 41
is_linear=0
shrinkage=0.1


Tree=125
num_leaves=6
num_cat=0
split_feature=3 1 0 1 1
split_gain=0.416272 0.274117 0.32956 0.274721 0.346646
threshold=1.8500000000000003 2.6500000000000008 6.0500000000000007 2.8500000000000001 3.0500000000000003
decision_type=2 2 2 2 2
left_child=1 -1 3 -3 -5
right_child=-2 2 -4 4 -6
leaf_value=0.032007172487996449 0.069167497995904062 -0.13063818100022259 0.002008936743670238 0.03895013561538635 -0.089997385373289898
leaf_weight=1.151155582629144 0.79650411289185274 0.41914004040882014 1.8225732296705244 0.38135718880221248 0.4598843555431813
leaf_count=17 30 6 26 13 43
internal_value=0 -0.00963213 -0.02518 -0.0644965 -0.031542
internal_weight=0 4.23411 3.08295 1.26038 0.841242
internal_count=135 105 88 62 56
is_linear=0
shrinkage=0.1


Tree=126
num_leaves=7
num_cat=0
split_feature=3 1 0 2 0 0
split_gain=0.418358 0.068725 6.52203e-05 1.06376e-05 5.40287e-06 5.09195e-08
threshold=0.45000000000000007 3.2500000000000004 5.5500000000000007 1.4500000000000002 6.0500000000000007 6.3500000000000005
decision_type=2 2 2 2 2 2
left_child=3 2 -2 -1 -4 -6
right_child=1 -3 4 -5 5 -7
leaf_value=0.067192099669136265 -0.069507118456317837 -0.0077672520503081315 -0.067766224074256073 0.06821156022944129 -0.067158492387895882 -0.067078061008177384
leaf_weight=0.18742569908499718 0.19581335922703147 0.25696778669953346 0.20941341482102871 0.22549953544512391 0.13922552228905261 0.18108764628414065
leaf_count=23 9 11 21 23 15 33
internal_value=0 -0.0522079 -0.0679477 0.0677488 -0.0673712 -0.067113
internal_weight=0 0.982508 0.72554 0.412925 0.529727 0.320313
internal_count=135 89 78 46 69 48
is_linear=0
shrinkage=0.1


Tree=127
num_leaves=5
num_cat=0
split_feature=2 0 0 0
split_gain=0.120133 0.578605 0.240048 0.263416
threshold=5.0500000000000007 6.2500000000000009 5.9500000000000011 5.2500000000000009
decision_type=2 2 2 2
left_child=1 2 3 -1
right_child=-2 -3 -4 -5
leaf_value=-0.029438807388789526 -0.022065876010724263 0.071742189054762998 -0.047273597989040628 0.055530059856644401
leaf_weight=0.72707933897618271 1.4936006662901489 1.119128589518368 1.1929558049887417 0.7323661632835865
leaf_count=42 38 15 12 28
internal_value=0 0.0114429 -0.0139991 0.0131995
internal_weight=0 3.77153 2.6524 1.45945
internal_count=135 97 82 70
is_linear=0
shrinkage=0.1


Tree=128
num_leaves=5
num_cat=0
split_feature=2 1 0 0
split_gain=0.392217 0.316336 0.234297 0.332937
threshold=5.1500000000000012 2.8500000000000001 6.5500000000000007 5.9500000000000011
decision_type=2 2 2 2
left_child=1 -1 3 -3
right_child=-2 2 -4 -5
leaf_value=0.014154618476651044 0.070486077700836092 -0.069308628518730195 -0.094556739446331098 0.038237203120020102
leaf_weight=2.4114102153107524 0.72601210745051492 0.58142293954733737 0.56779050081968296 0.57010972686111927
leaf_count=34 30 54 7 10
internal_value=0 -0.00921242 -0.0419855 -0.016064
internal_weight=0 4.13073 1.71932 1.15153
internal_count=135 105 71 64
is_linear=0
shrinkage=0.1


Tree=129
num_leaves=7
num_cat=0
split_feature=2 1 0 3 0 0
split_gain=0.387392 0.0614826 5.90213e-05 2.02325e-05 4.26212e-06 4.30155e-08
threshold=1.8 3.2500000000000004 5.5500000000000007 0.25000000000000006 6.0500000000000007 6.3500000000000005
decision_type=2 2 2 2 2 2
left_child=3 2 -2 -1 -4 -6
right_child=1 -3 4 -5 5 -7
leaf_value=0.067008989289906881 -0.06942050018900886 -0.0092907740563742732 -0.067690302999739299 0.068467698661318355 -0.067128404730727828 -0.067051286395362203
leaf_weight=0.19459240534342825 0.18607002240605652 0.24382805405184627 0.19370853062719107 0.18594441888853908 0.13046737853437662 0.16231024940498173
leaf_count=32 9 11 21 14 15 33
internal_value=0 -0.0523097 -0.0679058 0.0677218 -0.0673264 -0.0670857
internal_weight=0 0.916384 0.672556 0.380537 0.486486 0.292778
internal_count=135 89 78 46 69 48
is_linear=0
shrinkage=0.1


Tree=130
num_leaves=5
num_cat=0
split_feature=2 0 0 2
split_gain=0.109282 0.223735 0.118425 0.0219037
threshold=4.8500000000000005 5.1500000000000012 5.9500000000000011 5.0500000000000007
decision_type=2 2 2 2
left_child=1 -1 -3 -2
right_child=3 2 -4 -5
leaf_value=-0.02940153977666355 -0.0022373856328519038 0.074064868519388108 0.017287840065805013 -0.01960114760607317
leaf_weight=0.67445265839342061 1.4604649506509306 0.60654856753535547 0.93160686735063791 1.4455738670658318
leaf_count=38 9 30 20 38
internal_value=0 0.0186203 0.039677 -0.0108748
internal_weight=0 2.21261 1.53816 2.90604
internal_count=135 88 50 47
is_linear=0
shrinkage=0.1


Tree=131
num_leaves=6
num_cat=0
split_feature=3 1 0 1 1
split_gain=0.373068 0.230849 0.315501 0.257869 0.284792
threshold=1.8500000000000003 2.6500000000000008 6.0500000000000007 2.7500000000000004 3.0500000000000003
